{"type":"n","options":{"inputSize":74,"inputRange":74,"hiddenLayers":[20,20],"outputSize":74,"decayRate":0.999,"smoothEps":1e-8,"regc":0.000001,"clipval":5,"maxPredictionLength":100,"dataFormatter":{"values":["I really want to go home","sad","That chemistry test destroyed me today","Buffalo chicken sandwiches were delicious!","happy","EW481 is the best class ever!","I'm looking forward to liberty this weekend","The prt is way too hard","just heard that liberty was cancelled this weekend..","People above my room are making too much noise. Let me sleep!","USNA PRT should be the same as the fleet. NOT FAIR","King hall is out of food. I guess I can't eat tonight.","My prof brought his dog to class today! So cute.","oh god, please. make. the. gmt. stop.","Thanksgiving leave is definitely cancelled. So much for seeing family this year.","NAAA is getting audited! I'm sooo excited!","Plebes made a bet for the last football game and are walking down stribling saluting squirrels. Solid entertainment!","MacD was just closed down. I'm bored and can't workout","feels so good to have everyone back","room inspection was a total failure.. liberty cancelled","Ceremony cold brew is back in king hall.. a little caffeine is amazing!","health and wellness inspection next week.. time to hide everything in the ceiling again","Mid cars are being ticketed in the mid store parking lot. Watch out!","Slept through King Hall breakfast.. I'm hungry","Thank god we have a Chipotle. That burrito hit the spot!","This was the longest restriction muster ever. I'm going to pass out.","Finally a drink. Thank god for the 2 for 7 club.","Can't kiss my homies goodnight anymore because of COVID :(","Beef Boof sighted on 8-1, run! #1ifbyland2ifbysea","Really needing some over nights soon","On my 3rd XYience and can now see around corners #noneedforPRK","I can finally see #noneedforXYience","I love NKOs ","I'd rather have civies than overnights","Planning on making coffee with xyience I want to hear colors.","Ben Goldsberry is ugly","not being able to go home is making the cynicism really kick in ","Feeling like Garfield today","I don't like Thanksgiving anyway","Garret traggorth is afraid of commitment","Did well on exams today!","I miss my dog a lot... wish I could go home for Thanksgiving","247 is about to hit different this week","Ready for the PRT this Saturday... I feel prepared!","wish we could go home for thanksgiving","I really messed up with my friends over something that was not worth it in any way","If my plebe throws their printer off the breezeway how am I gonna get a taps sheet?","Please oh please give me civvies sir","Wish I could disappear","Thanksgiving :(","At least the semester is a week shorter","I'm an idiot","donate your printers, viva la revolucion!","really want civvies this weekend","Had no idea we had an exam today","Civies would be nice","I despise people who buy mustangs - they are just awful cars and don't make you cool","big fan of the all out brawl that occured between 28 and 27 plebes last night","love me some weapons class","yes","It's great to know that you can't get covid if you're wearing dress whites.","King Hall brought back bagels this morning, lets go","That test was a blast","Golf class was great today. Can't wait until next week!","No assignment for next week, huge!","I'm CDO on my birthday weekend. ","We earned our civilian clothing stop making us wear whites ","Give us overnights ","Making us stand so many extra watches :(","We got liberty three days in a row ","The plebes threw my printer off the breezeway ","the plebes put glitter in my expensive hair conditioner","My weapons teacher said he'll give me a good grade","I'm not ready for the PRT","I got free cinnamon rolls from a nice old lady","No weekends ","blessed with the opportunity of being here ","I truly despite unnecessary watches","King hall had terrible food today","leadership doesn't care about us","Ethics low key slaps","Grilled Cheese again?","6 weeks blessed me bruh","king hall is on some next level s*&$ today","civies pls","I didn't want to go home for thanksgiving anyway","I love my  roomate","my favorite part of the day is throwing my printer off the breezeway","Yay another Covid Test","I wish we could wear civvies like we're normally allowed to and not get bribed with my own rights.","Tucking in the homies goodnight","3 day weekend every weekend","man f*ck king hall watch","PR Buchanan not wearing a mask again ","so much for a normal year","When are we getting overnights??","gotta love not going home for thanksgiving","make sure you kiss the homies goodnight tonight","3 day weekend gonna get me right","PR is the man","Wow three kids get in trouble so now everyone is punished ","that's all i got ","P.R. only cares about how he looks to the gazzette","life is good","Sponsor sister kinda cute","I love what I learned here, not the place itself.","3 day weekend next weekend","In person class consists of 15 mids staring at their computer screens with headphones #nice","thxgiving w family","VMI jodels have penetrated our defenses","In conclusion of my first full day of in person classes: that was useless","Can't wait to have a drink tonight!","Go Navy, Beat Air Force!","We have ice at the BSC!","Awesome Day!","Students in the classroom teacher remote is rough. ","Got rid of the kids at the CDC today! Freedom!!","Air Force game this weekend in CO - Go Navy!","I wish I could be day-drinking like my other friends.","Thank goodness for daycare. ","One way hallways make (absolutely no) PERFECT sense!","Meeting on a Friday afternoon.. terrible timing","#LibertyExpired","See below ","2 of 3 kids will be in SACC next week","Who is actually following the signs?"],"indexTable":{"1":29,"2":53,"3":60,"4":27,"5":69,"6":65,"7":54,"8":28,"I":0," ":1,"r":2,"e":3,"a":4,"l":5,"y":6,"w":7,"n":8,"t":9,"o":10,"g":11,"h":12,"m":13,"s":14,"d":15,"T":16,"c":17,"i":18,"B":19,"u":20,"f":21,"k":22,"!":23,"p":24,"E":25,"W":26,"b":30,"v":31,"'":32,"j":33,".":34,"P":35,"L":36,"U":37,"S":38,"N":39,"A":40,"R":41,"O":42,"F":43,"K":44,"M":45,",":46,"x":47,"q":48,"D":49,"C":50,"z":51,"H":52,"V":55,":":56,"(":57,"-":58,"#":59,"X":61,"Y":62,"G":63,"?":64,"*":66,"&":67,"$":68,")":70,"stop-input":71,"start-output":72,"unrecognized":73},"characterTable":{"0":"I","1":" ","2":"r","3":"e","4":"a","5":"l","6":"y","7":"w","8":"n","9":"t","10":"o","11":"g","12":"h","13":"m","14":"s","15":"d","16":"T","17":"c","18":"i","19":"B","20":"u","21":"f","22":"k","23":"!","24":"p","25":"E","26":"W","27":"4","28":"8","29":"1","30":"b","31":"v","32":"'","33":"j","34":".","35":"P","36":"L","37":"U","38":"S","39":"N","40":"A","41":"R","42":"O","43":"F","44":"K","45":"M","46":",","47":"x","48":"q","49":"D","50":"C","51":"z","52":"H","53":"2","54":"7","55":"V","56":":","57":"(","58":"-","59":"#","60":"3","61":"X","62":"Y","63":"G","64":"?","65":"6","66":"*","67":"&","68":"$","69":"5","70":")","71":null,"72":null,"73":null},"characters":["I"," ","r","e","a","l","y","w","n","t","o","g","h","m","s","d","T","c","i","B","u","f","k","!","p","E","W","4","8","1","b","v","'","j",".","P","L","U","S","N","A","R","O","F","K","M",",","x","q","D","C","z","H","2","7","V",":","(","-","#","3","X","Y","G","?","6","*","&","$","5",")","stop-input","start-output","unrecognized"],"specialIndexes":[71,72,73]}},"input":{"rows":75,"columns":74,"weights":{"0":-1.099648356437683,"1":0.6089164018630981,"2":0.6768068671226501,"3":0.49555692076683044,"4":-0.959692120552063,"5":-1.6058433055877686,"6":-0.513970673084259,"7":-1.4463474750518799,"8":-0.5263936519622803,"9":-0.7687909007072449,"10":-1.3110934495925903,"11":-0.9839381575584412,"12":-0.5576847195625305,"13":-0.9878182411193848,"14":2.449808120727539,"15":-0.75140380859375,"16":0.7806518077850342,"17":0.8879737257957458,"18":-1.1379053592681885,"19":-1.0013450384140015,"20":0.6278476119041443,"21":-0.40968087315559387,"22":1.0342118740081787,"23":-1.1220213174819946,"24":0.2681666910648346,"25":0.386694997549057,"26":0.23664753139019012,"27":-1.9467072486877441,"28":-0.07676908373832703,"29":-1.7944120168685913,"30":-0.1695280373096466,"31":0.7327409386634827,"32":-3.283463954925537,"33":0.876493513584137,"34":1.5835554599761963,"35":-1.153195858001709,"36":0.28616124391555786,"37":-0.2704516053199768,"38":0.13096675276756287,"39":0.9781192541122437,"40":-0.076694056391716,"41":2.1478772163391113,"42":-0.43509262800216675,"43":-0.4910105764865875,"44":-0.2665729522705078,"45":-0.7694445252418518,"46":1.2271512746810913,"47":0.28369849920272827,"48":-0.8705254197120667,"49":-0.4771411120891571,"50":0.30992335081100464,"51":-0.2762537896633148,"52":0.25636616349220276,"53":0.052923545241355896,"54":0.005046680103987455,"55":-0.4492569863796234,"56":-0.6784027814865112,"57":1.75044584274292,"58":0.8732744455337524,"59":-0.1530444473028183,"60":-0.6243290901184082,"61":0.07964416593313217,"62":0.2646883428096771,"63":-0.49053671956062317,"64":-1.5066651105880737,"65":0.7382456660270691,"66":-0.5235501527786255,"67":0.9515085816383362,"68":-0.3971424698829651,"69":-0.05743851140141487,"70":-0.005163789261132479,"71":-0.12473445385694504,"72":1.9119588136672974,"73":0.21346595883369446,"74":1.813055396080017,"75":-6.725884437561035,"76":1.397428035736084,"77":4.85996675491333,"78":3.5431289672851562,"79":3.626967430114746,"80":3.6625070571899414,"81":-0.9537625908851624,"82":-1.9755929708480835,"83":2.125659704208374,"84":5.1036858558654785,"85":-0.022995958104729652,"86":-6.193217754364014,"87":1.3717269897460938,"88":0.2808823585510254,"89":-4.54030704498291,"90":-0.46204742789268494,"91":-1.7493336200714111,"92":1.0407429933547974,"93":-1.7188142538070679,"94":0.6469375491142273,"95":2.992490768432617,"96":0.30457693338394165,"97":-0.09582281112670898,"98":-2.9406371116638184,"99":0.35509157180786133,"100":0.9771081805229187,"101":-1.5680618286132812,"102":0.6402169466018677,"103":3.766338586807251,"104":1.5705622434616089,"105":0.8579077124595642,"106":2.42488169670105,"107":-2.0533838272094727,"108":-3.7941088676452637,"109":-4.394601345062256,"110":-1.5167572498321533,"111":2.853055715560913,"112":-4.0780205726623535,"113":-2.8286898136138916,"114":-5.415911674499512,"115":-3.8926749229431152,"116":4.742513656616211,"117":3.4543144702911377,"118":0.5483176112174988,"119":0.6404399871826172,"120":-2.351688861846924,"121":-3.3377645015716553,"122":-2.0295753479003906,"123":0.7479889988899231,"124":-1.1079847812652588,"125":3.7853715419769287,"126":3.4497077465057373,"127":-3.67395281791687,"128":-0.4414336085319519,"129":-1.468327283859253,"130":1.476577877998352,"131":-7.201253414154053,"132":-5.446816921234131,"133":-6.632377624511719,"134":4.499622344970703,"135":5.401186943054199,"136":-2.345848798751831,"137":-0.9281044006347656,"138":3.460362195968628,"139":-0.061230484396219254,"140":-1.7346925735473633,"141":-6.31156063079834,"142":0.2373121976852417,"143":0.4934156537055969,"144":2.1490659713745117,"145":-1.18678617477417,"146":-2.038206100463867,"147":-5.360961437225342,"148":-0.8264448642730713,"149":-1.555429458618164,"150":-0.3637617528438568,"151":-0.07743265479803085,"152":0.8070873022079468,"153":0.5736814141273499,"154":0.48320433497428894,"155":-0.9584722518920898,"156":-0.16850337386131287,"157":1.3813716173171997,"158":0.6286359429359436,"159":1.0910893678665161,"160":-3.763117790222168,"161":-0.9687948822975159,"162":2.3335912227630615,"163":1.2113736867904663,"164":1.3412461280822754,"165":-0.04132064804434776,"166":-0.05212380364537239,"167":-2.5365421772003174,"168":-0.4363402724266052,"169":1.6115411520004272,"170":0.9173988103866577,"171":2.4122695922851562,"172":0.15261974930763245,"173":-0.3474794924259186,"174":-1.959332823753357,"175":1.1538925170898438,"176":1.0143431425094604,"177":0.6203639507293701,"178":0.9969494342803955,"179":4.416288375854492,"180":-0.4242793321609497,"181":0.8909666538238525,"182":2.092416524887085,"183":-1.6889528036117554,"184":0.8235267996788025,"185":-0.8077569603919983,"186":-0.17286136746406555,"187":-0.46484196186065674,"188":-0.6001624464988708,"189":2.619260549545288,"190":-1.4287149906158447,"191":-0.08447355031967163,"192":2.2334392070770264,"193":1.0168911218643188,"194":0.9861916303634644,"195":-2.1559412479400635,"196":1.4898055791854858,"197":0.5606253147125244,"198":-1.4623942375183105,"199":0.8174924850463867,"200":-0.5851187109947205,"201":-2.4681646823883057,"202":2.2435288429260254,"203":-1.0102702379226685,"204":-0.41138848662376404,"205":-2.3357393741607666,"206":-0.5965108871459961,"207":-0.899326503276825,"208":-1.4735639095306396,"209":2.2134275436401367,"210":1.0253957509994507,"211":1.7035340070724487,"212":0.7688597440719604,"213":-0.8012741208076477,"214":-2.959432363510132,"215":-1.1514549255371094,"216":0.2354547083377838,"217":2.1794190406799316,"218":0.8074218034744263,"219":0.35461413860321045,"220":2.2019729614257812,"221":-3.2285988330841064,"222":1.2169992923736572,"223":-1.0341086387634277,"224":2.7588698863983154,"225":1.1758955717086792,"226":-1.560397744178772,"227":1.9306625127792358,"228":1.7571611404418945,"229":0.6354969143867493,"230":-4.194186210632324,"231":0.36195558309555054,"232":2.3183300495147705,"233":1.0073975324630737,"234":0.6991456747055054,"235":-0.08097690343856812,"236":1.611463189125061,"237":-1.204248070716858,"238":-2.061760187149048,"239":0.0060294680297374725,"240":-2.168503999710083,"241":0.1436624675989151,"242":-0.7212087512016296,"243":-1.0441975593566895,"244":-1.8899576663970947,"245":2.2396020889282227,"246":0.7076411843299866,"247":-1.263192057609558,"248":-4.049934387207031,"249":-0.7537420392036438,"250":1.9318561553955078,"251":0.47803640365600586,"252":-0.4627407193183899,"253":-0.03915133699774742,"254":2.963451623916626,"255":-0.3243463933467865,"256":-1.2075283527374268,"257":-1.1677865982055664,"258":-0.3010435104370117,"259":-2.150277614593506,"260":0.16028602421283722,"261":-2.0218684673309326,"262":-0.3469642996788025,"263":-0.14989134669303894,"264":0.26037895679473877,"265":-0.11417951434850693,"266":1.0463128089904785,"267":-0.2570437788963318,"268":-0.977306067943573,"269":-1.2216401100158691,"270":-0.12238064408302307,"271":-0.02873586304485798,"272":0.3087742030620575,"273":1.8543922901153564,"274":0.3299632668495178,"275":-0.5784403681755066,"276":0.32601282000541687,"277":-2.2695517539978027,"278":2.4332985877990723,"279":-2.090345621109009,"280":-0.6834962964057922,"281":1.7459067106246948,"282":-0.1965533345937729,"283":2.266075849533081,"284":-1.372342586517334,"285":2.9382805824279785,"286":-2.9487733840942383,"287":-4.365642070770264,"288":-0.5302971005439758,"289":-1.5375639200210571,"290":5.4257378578186035,"291":0.8934366703033447,"292":0.3669307231903076,"293":-2.3188869953155518,"294":2.20711088180542,"295":0.5184587836265564,"296":1.049346923828125,"297":0.7355814576148987,"298":-1.316880702972412,"299":0.638264000415802,"300":0.08980625122785568,"301":1.8108253479003906,"302":2.2295563220977783,"303":2.0768654346466064,"304":0.7594238519668579,"305":-2.8026750087738037,"306":0.2511982023715973,"307":-1.4662338495254517,"308":-0.20544478297233582,"309":1.3457434177398682,"310":-0.9428353905677795,"311":-1.9559712409973145,"312":-1.8171982765197754,"313":1.1321336030960083,"314":-0.8483996987342834,"315":0.5665203928947449,"316":-3.740248680114746,"317":-1.7006508111953735,"318":1.6485897302627563,"319":-0.8529889583587646,"320":-1.2028343677520752,"321":-2.7962684631347656,"322":2.0800158977508545,"323":-0.361898273229599,"324":-0.4620119035243988,"325":-0.6646382212638855,"326":-0.659407377243042,"327":0.9883612394332886,"328":2.8126087188720703,"329":1.2380847930908203,"330":-1.0533506870269775,"331":0.042057618498802185,"332":0.3840351104736328,"333":-2.1638994216918945,"334":-0.04813764616847038,"335":-0.003689483040943742,"336":-0.4044584333896637,"337":-0.7867289185523987,"338":-1.1891913414001465,"339":-0.41446787118911743,"340":-0.09480125457048416,"341":-2.8339407444000244,"342":0.9742099642753601,"343":-0.8922367691993713,"344":-2.120347738265991,"345":-1.508870244026184,"346":1.7575832605361938,"347":-0.2198675125837326,"348":0.7085298895835876,"349":-0.27457210421562195,"350":-1.1025999784469604,"351":-0.6082800030708313,"352":2.580673933029175,"353":-0.7829421162605286,"354":-1.8930341005325317,"355":1.553733468055725,"356":2.0865049362182617,"357":0.20708400011062622,"358":-0.5070392489433289,"359":-1.3478575944900513,"360":-3.699801206588745,"361":-3.3036129474639893,"362":2.49484920501709,"363":-0.5069929957389832,"364":2.665361166000366,"365":-1.508604645729065,"366":0.5882315039634705,"367":-1.5331997871398926,"368":-2.1075479984283447,"369":1.0157060623168945,"370":-0.5246216058731079,"371":-0.9971559047698975,"372":-0.08367838710546494,"373":-1.610771894454956,"374":-0.8205705881118774,"375":1.5380910634994507,"376":-0.5399321913719177,"377":0.7416141629219055,"378":1.2197442054748535,"379":2.221312999725342,"380":0.1462162584066391,"381":0.46696552634239197,"382":0.18546190857887268,"383":0.4287547469139099,"384":-1.9173206090927124,"385":1.8726446628570557,"386":-0.890821099281311,"387":-1.6862586736679077,"388":3.5089111328125,"389":1.9317424297332764,"390":-0.2867814004421234,"391":0.6395936608314514,"392":-1.668061375617981,"393":-1.7635564804077148,"394":4.334500312805176,"395":2.508331775665283,"396":-0.45521485805511475,"397":3.777431011199951,"398":-1.611573338508606,"399":1.2094361782073975,"400":1.84178626537323,"401":-1.7273927927017212,"402":1.8178926706314087,"403":-2.227705955505371,"404":-0.47731465101242065,"405":0.7330682873725891,"406":-1.0608084201812744,"407":1.015893816947937,"408":-0.7880077958106995,"409":1.173971176147461,"410":2.417125940322876,"411":-1.1866223812103271,"412":-1.5581620931625366,"413":-1.1301989555358887,"414":0.1648503839969635,"415":-0.43187466263771057,"416":-0.9414653182029724,"417":-0.2945456802845001,"418":-1.0005779266357422,"419":-0.024687331169843674,"420":-1.1277133226394653,"421":-0.47382187843322754,"422":-0.5928314924240112,"423":1.5794823169708252,"424":3.181454658508301,"425":0.3618465065956116,"426":0.2278440296649933,"427":1.994860291481018,"428":1.8146015405654907,"429":1.2362226247787476,"430":0.778907060623169,"431":-0.8358801007270813,"432":0.6853414177894592,"433":-1.778212308883667,"434":3.7858786582946777,"435":1.9914240837097168,"436":-1.530207872390747,"437":1.550329566001892,"438":-2.8139352798461914,"439":-0.6254671216011047,"440":-0.9732374548912048,"441":1.3951047658920288,"442":-1.4017794132232666,"443":-0.5153475403785706,"444":-2.485322952270508,"445":0.23790176212787628,"446":0.1479492485523224,"447":-2.1534924507141113,"448":-4.412112236022949,"449":-3.826164722442627,"450":0.11685985326766968,"451":-0.06259062886238098,"452":3.4641191959381104,"453":0.7043570876121521,"454":-3.4357144832611084,"455":1.6281810998916626,"456":2.0190792083740234,"457":-1.8229494094848633,"458":0.728348970413208,"459":0.5458379983901978,"460":0.7255306243896484,"461":-0.5619220733642578,"462":-0.832698404788971,"463":1.8000028133392334,"464":1.3656363487243652,"465":-1.0181019306182861,"466":-1.079370379447937,"467":0.28625428676605225,"468":0.9161796569824219,"469":3.651736259460449,"470":1.800369143486023,"471":-1.775534749031067,"472":-0.329702228307724,"473":-5.565810203552246,"474":-0.7095054388046265,"475":0.8877811431884766,"476":-2.885669231414795,"477":-0.23773574829101562,"478":1.1991569995880127,"479":-0.3381841778755188,"480":-1.832930326461792,"481":0.7103796601295471,"482":0.22299765050411224,"483":1.8212577104568481,"484":3.2018558979034424,"485":-1.1272510290145874,"486":0.7282664775848389,"487":-3.6498591899871826,"488":-2.073256492614746,"489":-2.397765636444092,"490":0.08960040658712387,"491":1.9364076852798462,"492":0.7434362769126892,"493":2.835099458694458,"494":0.887637734413147,"495":-1.1667736768722534,"496":0.4184829890727997,"497":0.9570781588554382,"498":-1.4798808097839355,"499":1.2616857290267944,"500":-0.35646066069602966,"501":2.106680393218994,"502":1.4771640300750732,"503":0.03490389883518219,"504":1.768589735031128,"505":-2.0413360595703125,"506":-1.4896987676620483,"507":-0.1918368637561798,"508":-3.19332218170166,"509":4.519794464111328,"510":0.7023797631263733,"511":1.7740015983581543,"512":-3.311548948287964,"513":-1.1140421628952026,"514":0.08464805781841278,"515":1.847084403038025,"516":1.3968753814697266,"517":0.26934850215911865,"518":1.2718783617019653,"519":1.1202824115753174,"520":1.2930899858474731,"521":2.7212328910827637,"522":1.5781164169311523,"523":0.34818413853645325,"524":-1.122337818145752,"525":1.8145146369934082,"526":-3.8707690238952637,"527":-2.3504507541656494,"528":2.390422821044922,"529":-1.7804898023605347,"530":0.7333606481552124,"531":-2.025881767272949,"532":0.2525995671749115,"533":-3.977307081222534,"534":2.170119524002075,"535":5.000216484069824,"536":-2.3771026134490967,"537":0.29444172978401184,"538":1.0252313613891602,"539":-0.5081074833869934,"540":3.570739507675171,"541":1.7914491891860962,"542":-0.26762962341308594,"543":-2.1346750259399414,"544":-2.229987859725952,"545":0.38730588555336,"546":1.678040623664856,"547":2.417253017425537,"548":0.27204206585884094,"549":0.9229786992073059,"550":1.4800505638122559,"551":0.5381900072097778,"552":-1.6455695629119873,"553":1.3892590999603271,"554":0.8164643049240112,"555":1.7128928899765015,"556":-1.0579885244369507,"557":-0.5010808110237122,"558":-0.7871116995811462,"559":-1.2456116676330566,"560":0.7685788869857788,"561":1.4373606443405151,"562":-0.17561182379722595,"563":2.451448678970337,"564":2.0608677864074707,"565":-0.7800211906433105,"566":-2.9613914489746094,"567":-3.490584373474121,"568":0.6483789682388306,"569":0.07038836926221848,"570":-0.8938154578208923,"571":-0.8088904023170471,"572":0.08085265010595322,"573":-1.0002031326293945,"574":1.6789419651031494,"575":0.09796996414661407,"576":0.08841490745544434,"577":0.3781798481941223,"578":1.1326301097869873,"579":3.570077419281006,"580":-1.514201045036316,"581":2.5806167125701904,"582":-0.04404350742697716,"583":-2.5587503910064697,"584":-2.1741578578948975,"585":-1.6418969631195068,"586":2.237921714782715,"587":1.1460323333740234,"588":2.3150153160095215,"589":-2.412804126739502,"590":-0.8049630522727966,"591":-0.48797616362571716,"592":-1.6092138290405273,"593":-2.898071050643921,"594":3.3445053100585938,"595":-0.9349187612533569,"596":-1.177209734916687,"597":0.7331513166427612,"598":0.39255040884017944,"599":-0.8002152442932129,"600":0.6891719102859497,"601":-2.1320080757141113,"602":0.43567004799842834,"603":2.2667269706726074,"604":-2.169015884399414,"605":-2.9424593448638916,"606":2.759500503540039,"607":-0.04178159683942795,"608":1.6734141111373901,"609":-4.268311977386475,"610":1.851799488067627,"611":-2.1023378372192383,"612":0.5250653028488159,"613":-0.17721524834632874,"614":-2.9274396896362305,"615":2.3329548835754395,"616":2.1793720722198486,"617":0.715958297252655,"618":-1.7448639869689941,"619":1.9898077249526978,"620":3.8497722148895264,"621":-1.0818495750427246,"622":3.2114291191101074,"623":2.7783758640289307,"624":1.2374022006988525,"625":3.926055669784546,"626":2.204819440841675,"627":-3.249145030975342,"628":5.872255325317383,"629":0.6770542860031128,"630":-2.9795122146606445,"631":-2.032996416091919,"632":1.514165997505188,"633":3.4629156589508057,"634":-0.6126323938369751,"635":-1.1303672790527344,"636":-0.9069507718086243,"637":-0.9908812046051025,"638":-0.9064777493476868,"639":-3.7093615531921387,"640":-1.8964933156967163,"641":-1.0538179874420166,"642":-0.5431902408599854,"643":4.496376037597656,"644":-1.3930786848068237,"645":-3.227424383163452,"646":0.49092134833335876,"647":-7.482216835021973,"648":-3.85067081451416,"649":-0.44018489122390747,"650":0.2832646369934082,"651":-0.24566739797592163,"652":0.34690213203430176,"653":3.5653011798858643,"654":-0.13635575771331787,"655":2.4305174350738525,"656":1.0404435396194458,"657":-2.236457109451294,"658":0.7885778546333313,"659":0.525367259979248,"660":-1.8221415281295776,"661":-1.820328950881958,"662":3.3834688663482666,"663":-2.653913974761963,"664":3.7089855670928955,"665":-0.7034792900085449,"666":-0.18138235807418823,"667":0.020835502073168755,"668":0.9242792725563049,"669":-0.8296307325363159,"670":-0.5492016077041626,"671":-0.9840843677520752,"672":-0.16113156080245972,"673":2.0361721515655518,"674":1.6431467533111572,"675":0.2801085412502289,"676":-2.330874443054199,"677":1.6184972524642944,"678":1.4193233251571655,"679":1.3096699714660645,"680":-1.6966490745544434,"681":0.6747607588768005,"682":-2.145101308822632,"683":-2.516195058822632,"684":0.6103389263153076,"685":0.35210856795310974,"686":0.9654891490936279,"687":-0.8287198543548584,"688":0.7049459218978882,"689":-0.34296903014183044,"690":0.490631639957428,"691":-0.5684579610824585,"692":1.7448265552520752,"693":0.9962470531463623,"694":0.45401138067245483,"695":-1.3823062181472778,"696":1.596681833267212,"697":2.228710889816284,"698":0.29695287346839905,"699":2.0019445419311523,"700":0.005347445607185364,"701":0.30561551451683044,"702":3.71614670753479,"703":-1.961470365524292,"704":1.8391295671463013,"705":-0.048451829701662064,"706":1.476761817932129,"707":1.1858447790145874,"708":-1.2075347900390625,"709":-0.33821165561676025,"710":-0.27676278352737427,"711":-1.391265630722046,"712":-1.6333707571029663,"713":-1.5064055919647217,"714":1.9658321142196655,"715":1.115769863128662,"716":-1.935171127319336,"717":2.673208236694336,"718":-0.8782708644866943,"719":-2.0828654766082764,"720":1.492045521736145,"721":-2.2765743732452393,"722":-1.627439022064209,"723":-0.8660847544670105,"724":-1.674878478050232,"725":1.009421706199646,"726":-1.3242071866989136,"727":2.0207736492156982,"728":0.027891570702195168,"729":1.2425733804702759,"730":0.06312990188598633,"731":-2.8992772102355957,"732":3.5887563228607178,"733":-2.6708993911743164,"734":0.9826540946960449,"735":-0.6665336489677429,"736":-0.8931098580360413,"737":-3.1160528659820557,"738":0.5309850573539734,"739":-0.3969751000404358,"740":-0.6234009265899658,"741":0.4125884771347046,"742":-1.4834400415420532,"743":-0.4131041467189789,"744":-1.3917368650436401,"745":0.37476786971092224,"746":-2.02291202545166,"747":-1.1336069107055664,"748":0.13389120995998383,"749":0.7050449848175049,"750":1.407846212387085,"751":-0.35336998105049133,"752":1.9759621620178223,"753":1.995177149772644,"754":0.255325585603714,"755":-0.1534695029258728,"756":-1.0131707191467285,"757":0.2623317539691925,"758":1.530707836151123,"759":0.46143123507499695,"760":0.15464071929454803,"761":-1.3738404512405396,"762":0.3959263563156128,"763":-0.5944808721542358,"764":-0.514548659324646,"765":0.09638061374425888,"766":1.4790092706680298,"767":1.1473244428634644,"768":-3.2176361083984375,"769":-1.4330425262451172,"770":-0.6305785775184631,"771":-1.9557276964187622,"772":-1.445162296295166,"773":-2.7828822135925293,"774":1.156617283821106,"775":0.8444055914878845,"776":-1.1296581029891968,"777":1.2258479595184326,"778":0.7665553689002991,"779":0.23973314464092255,"780":0.9576454162597656,"781":0.4077122211456299,"782":1.5012503862380981,"783":-0.7251632213592529,"784":-3.123053550720215,"785":-1.151869535446167,"786":-0.4445037245750427,"787":1.4576224088668823,"788":0.20716701447963715,"789":1.527299404144287,"790":-0.08001429587602615,"791":-1.7669886350631714,"792":-1.160219430923462,"793":2.6950204372406006,"794":-0.4029437303543091,"795":0.9638422131538391,"796":-2.2776873111724854,"797":0.18293224275112152,"798":1.5431163311004639,"799":1.1221646070480347,"800":-1.0061311721801758,"801":-1.6944116353988647,"802":3.1492831707000732,"803":-3.6116695404052734,"804":1.0987623929977417,"805":1.6780463457107544,"806":0.8375824093818665,"807":0.7513900995254517,"808":-1.7806477546691895,"809":-2.241961717605591,"810":-0.7632248997688293,"811":1.828608751296997,"812":0.2407243549823761,"813":1.5995980501174927,"814":-0.9554983377456665,"815":-1.2587262392044067,"816":2.2862329483032227,"817":1.5519287586212158,"818":-0.8818861246109009,"819":-0.31693732738494873,"820":0.9105613827705383,"821":-0.9269134998321533,"822":-1.2655665874481201,"823":0.8271306157112122,"824":2.587399482727051,"825":-0.5747904181480408,"826":1.3185195922851562,"827":-1.3487024307250977,"828":-0.052487485110759735,"829":-1.626999855041504,"830":1.1568377017974854,"831":0.821094810962677,"832":-1.1824836730957031,"833":-2.963505983352661,"834":0.7441087365150452,"835":-0.03449301794171333,"836":-0.19078412652015686,"837":4.997200965881348,"838":0.8922646641731262,"839":-0.6483060717582703,"840":-4.3268208503723145,"841":-0.19940705597400665,"842":2.043074131011963,"843":-0.20467619597911835,"844":1.8551884889602661,"845":0.9760482907295227,"846":-0.27650579810142517,"847":1.005495309829712,"848":0.3054603338241577,"849":-3.298647403717041,"850":3.237142562866211,"851":-0.6833598613739014,"852":-0.5372612476348877,"853":-2.2200469970703125,"854":-1.4420970678329468,"855":1.3987599611282349,"856":-1.7267098426818848,"857":0.787595272064209,"858":-0.16057558357715607,"859":-0.09162808954715729,"860":-2.1123640537261963,"861":-1.9760066270828247,"862":-1.0143005847930908,"863":1.0926570892333984,"864":-0.580536425113678,"865":4.7119574546813965,"866":-1.9287079572677612,"867":-3.8699238300323486,"868":2.523674249649048,"869":-2.6237571239471436,"870":-0.8797930479049683,"871":0.8537827134132385,"872":-1.2344136238098145,"873":-0.7193800210952759,"874":-3.2968366146087646,"875":1.5636367797851562,"876":-0.4780144691467285,"877":2.3825645446777344,"878":2.142578363418579,"879":-0.9194502830505371,"880":-1.6432147026062012,"881":-3.4266796112060547,"882":0.4349289536476135,"883":1.460957646369934,"884":2.18971586227417,"885":-1.3636828660964966,"886":-1.2669230699539185,"887":-1.584726333618164,"888":-0.5697234869003296,"889":-0.5925740003585815,"890":-4.3510541915893555,"891":-1.2577552795410156,"892":-2.9813642501831055,"893":-0.9228434562683105,"894":-0.38162127137184143,"895":-2.424229621887207,"896":1.2844593524932861,"897":-1.2868033647537231,"898":2.2849066257476807,"899":-1.1726009845733643,"900":4.054432392120361,"901":0.24293363094329834,"902":0.3821570873260498,"903":-0.30860254168510437,"904":-0.896091103553772,"905":2.3013405799865723,"906":-0.4622931182384491,"907":-1.0090560913085938,"908":0.07099772244691849,"909":-0.33880817890167236,"910":2.7692527770996094,"911":-0.8854263424873352,"912":-1.5124108791351318,"913":1.5920732021331787,"914":1.0876703262329102,"915":-2.0965373516082764,"916":-1.1721720695495605,"917":-0.3861525356769562,"918":-1.5767310857772827,"919":-1.3628064393997192,"920":-3.0100648403167725,"921":-3.5842740535736084,"922":2.5191683769226074,"923":-0.37395110726356506,"924":-1.998898983001709,"925":1.0451958179473877,"926":-1.4108461141586304,"927":-1.3670278787612915,"928":1.0554862022399902,"929":1.699682593345642,"930":0.592178225517273,"931":1.3371577262878418,"932":1.4961583614349365,"933":-1.1591190099716187,"934":2.3141701221466064,"935":1.4127832651138306,"936":-2.3627572059631348,"937":1.037449836730957,"938":-0.9389768242835999,"939":-4.051403522491455,"940":-0.7245616316795349,"941":0.8041206002235413,"942":-0.47748616337776184,"943":4.9063029289245605,"944":-1.380545735359192,"945":1.3368886709213257,"946":1.9400582313537598,"947":-0.10547692328691483,"948":-2.958585023880005,"949":0.0766831785440445,"950":2.0759389400482178,"951":-3.545442819595337,"952":-0.3250751793384552,"953":3.5932562351226807,"954":0.07415538281202316,"955":0.16305163502693176,"956":-1.7757432460784912,"957":0.5227462649345398,"958":0.5646190643310547,"959":2.048133134841919,"960":0.500884473323822,"961":1.1662201881408691,"962":-2.5995023250579834,"963":0.0941472202539444,"964":0.12258308380842209,"965":-0.4287107586860657,"966":-0.5423822999000549,"967":-0.44382619857788086,"968":-0.1620810329914093,"969":1.3096877336502075,"970":-0.4677063524723053,"971":0.03061066009104252,"972":1.5378150939941406,"973":0.7233894467353821,"974":-1.241775631904602,"975":0.22836442291736603,"976":-1.4791449308395386,"977":-1.2533788681030273,"978":1.0520691871643066,"979":-0.033336736261844635,"980":-1.0710304975509644,"981":2.2079577445983887,"982":1.1493288278579712,"983":1.6136938333511353,"984":-1.4562928676605225,"985":0.38683488965034485,"986":0.45243164896965027,"987":-0.7478840351104736,"988":-3.172006607055664,"989":-0.4323442578315735,"990":-0.30486777424812317,"991":2.701080083847046,"992":0.3902710974216461,"993":-0.9464001655578613,"994":1.0517339706420898,"995":-0.4660772681236267,"996":-2.2381036281585693,"997":1.5206141471862793,"998":-0.8386801481246948,"999":1.5166393518447876,"1000":2.665914535522461,"1001":1.1719111204147339,"1002":-1.2807745933532715,"1003":-1.9065759181976318,"1004":-1.5249923467636108,"1005":-0.9695776700973511,"1006":-1.2679945230484009,"1007":2.5752947330474854,"1008":0.9656025171279907,"1009":0.15985658764839172,"1010":0.04798300936818123,"1011":1.5282597541809082,"1012":-2.43611478805542,"1013":1.7463340759277344,"1014":-0.05511878803372383,"1015":0.3268100619316101,"1016":0.6077542901039124,"1017":0.39529046416282654,"1018":2.7214293479919434,"1019":-4.003478050231934,"1020":-1.3239017724990845,"1021":0.8782792091369629,"1022":2.167531967163086,"1023":3.703362464904785,"1024":2.5265305042266846,"1025":0.9943454265594482,"1026":-1.0144065618515015,"1027":0.23091483116149902,"1028":-1.1836470365524292,"1029":-3.2094666957855225,"1030":1.125941514968872,"1031":-0.5061125159263611,"1032":0.15852095186710358,"1033":-1.2421517372131348,"1034":-0.7423426508903503,"1035":-1.4989677667617798,"1036":-2.2726032733917236,"1037":-1.4726451635360718,"1038":0.5041395425796509,"1039":-2.6481902599334717,"1040":-3.3212497234344482,"1041":-3.9810678958892822,"1042":-5.145549297332764,"1043":-2.9877333641052246,"1044":2.7337498664855957,"1045":2.6081809997558594,"1046":2.232609748840332,"1047":-0.764091968536377,"1048":5.858180522918701,"1049":-1.067408561706543,"1050":-3.5786359310150146,"1051":-1.171179175376892,"1052":0.5547605752944946,"1053":5.033382415771484,"1054":-0.710465669631958,"1055":4.562929630279541,"1056":-0.7299702167510986,"1057":2.6732802391052246,"1058":0.5443037748336792,"1059":1.0935980081558228,"1060":1.009765625,"1061":1.6301417350769043,"1062":-0.7950395345687866,"1063":-3.5297982692718506,"1064":-0.33952173590660095,"1065":-4.830770969390869,"1066":-3.846007823944092,"1067":-1.7520426511764526,"1068":-4.990954875946045,"1069":-0.2093692570924759,"1070":4.642226219177246,"1071":-0.948212206363678,"1072":-3.1893203258514404,"1073":1.5679597854614258,"1074":-0.3193826675415039,"1075":-0.8310084939002991,"1076":0.894279420375824,"1077":3.5365242958068848,"1078":4.127458095550537,"1079":-2.118407726287842,"1080":-0.0032503423281013966,"1081":-0.6035855412483215,"1082":0.3911089301109314,"1083":0.9405727386474609,"1084":0.5406002402305603,"1085":0.619443953037262,"1086":2.308833360671997,"1087":-1.0300967693328857,"1088":-0.9143247604370117,"1089":0.007944174110889435,"1090":-1.544152855873108,"1091":1.5574215650558472,"1092":-2.7168784141540527,"1093":0.9667207598686218,"1094":2.488464832305908,"1095":-1.1593095064163208,"1096":-6.27122163772583,"1097":-0.014380726963281631,"1098":0.87898850440979,"1099":-1.1832062005996704,"1100":-5.390364646911621,"1101":2.2363128662109375,"1102":0.8921576142311096,"1103":-0.00841106940060854,"1104":-4.5048933029174805,"1105":-0.5067887306213379,"1106":1.0169767141342163,"1107":2.582214832305908,"1108":2.610140562057495,"1109":-1.987542748451233,"1110":2.3914990425109863,"1111":-0.635291576385498,"1112":-0.7076886296272278,"1113":1.9108119010925293,"1114":2.1201179027557373,"1115":4.223213195800781,"1116":3.3759825229644775,"1117":-0.7240139842033386,"1118":-1.3891249895095825,"1119":-1.687066674232483,"1120":4.104183197021484,"1121":-1.714577555656433,"1122":0.4292503893375397,"1123":1.6249314546585083,"1124":0.04517722129821777,"1125":-2.7151947021484375,"1126":-0.4021643102169037,"1127":0.4146166145801544,"1128":-1.5217920541763306,"1129":-0.9822614789009094,"1130":-0.5436973571777344,"1131":-0.5080145001411438,"1132":-1.0974458456039429,"1133":-1.3888689279556274,"1134":-1.5389587879180908,"1135":-1.7680302858352661,"1136":0.4651699960231781,"1137":-1.0187575817108154,"1138":-1.0359514951705933,"1139":3.7362594604492188,"1140":-2.6171865463256836,"1141":-2.6545472145080566,"1142":2.1996138095855713,"1143":2.446315288543701,"1144":-0.5847651958465576,"1145":-1.3503073453903198,"1146":-0.2155870646238327,"1147":0.46570196747779846,"1148":-2.468745470046997,"1149":-1.218316912651062,"1150":-2.9226772785186768,"1151":0.11880523711442947,"1152":4.165790557861328,"1153":3.4498167037963867,"1154":0.12369494140148163,"1155":0.4948276877403259,"1156":2.4885735511779785,"1157":0.1954861879348755,"1158":-0.9163936972618103,"1159":-0.835148274898529,"1160":-0.5785853862762451,"1161":-0.7950128316879272,"1162":3.3149232864379883,"1163":-1.6471554040908813,"1164":0.041867226362228394,"1165":2.9131925106048584,"1166":0.37379541993141174,"1167":-1.2462636232376099,"1168":-1.727556824684143,"1169":-1.5059374570846558,"1170":0.30126863718032837,"1171":2.011869430541992,"1172":0.8031690120697021,"1173":-0.12619240581989288,"1174":2.564795732498169,"1175":-0.4108459949493408,"1176":-1.7689132690429688,"1177":-2.6463279724121094,"1178":-0.3581400513648987,"1179":0.3638525605201721,"1180":-0.7726057171821594,"1181":-1.457857370376587,"1182":-1.417685627937317,"1183":0.13608203828334808,"1184":-1.2751585245132446,"1185":-1.1361252069473267,"1186":-0.6363797783851624,"1187":-1.2793669700622559,"1188":-1.9649733304977417,"1189":0.3768862783908844,"1190":-2.695296049118042,"1191":2.9621734619140625,"1192":2.1365232467651367,"1193":4.6991472244262695,"1194":-0.4069347381591797,"1195":1.770831823348999,"1196":0.830364465713501,"1197":2.5901436805725098,"1198":-0.28759732842445374,"1199":4.075985908508301,"1200":-2.3257791996002197,"1201":-3.1250009536743164,"1202":1.141364574432373,"1203":1.6572836637496948,"1204":1.0206031799316406,"1205":0.47712045907974243,"1206":-0.43717068433761597,"1207":-0.48860955238342285,"1208":2.90165376663208,"1209":1.6264278888702393,"1210":-0.8597127199172974,"1211":2.8943779468536377,"1212":-0.8159839510917664,"1213":-0.9608824849128723,"1214":0.6363697648048401,"1215":-1.0084506273269653,"1216":1.7831776142120361,"1217":-0.9994776844978333,"1218":-2.65718150138855,"1219":0.5914093852043152,"1220":-2.495046377182007,"1221":0.14798608422279358,"1222":0.3598221242427826,"1223":0.8031660914421082,"1224":1.1991773843765259,"1225":-1.5254117250442505,"1226":1.140323281288147,"1227":-2.822256326675415,"1228":-0.09266681224107742,"1229":0.6715153455734253,"1230":0.6780250072479248,"1231":1.485856533050537,"1232":1.7279938459396362,"1233":0.087760329246521,"1234":-3.726212501525879,"1235":-0.9841049313545227,"1236":1.509191870689392,"1237":1.653138518333435,"1238":1.3233716487884521,"1239":1.516459584236145,"1240":0.08310842514038086,"1241":0.11167331784963608,"1242":1.586944580078125,"1243":-0.03414957970380783,"1244":2.4816839694976807,"1245":-1.0979974269866943,"1246":0.3473207354545593,"1247":-0.4759445786476135,"1248":1.1603304147720337,"1249":-0.4470866918563843,"1250":0.5791457295417786,"1251":1.6234955787658691,"1252":-0.3715820014476776,"1253":-0.3216938078403473,"1254":-2.3118131160736084,"1255":2.0735583305358887,"1256":-4.238194942474365,"1257":0.537942111492157,"1258":-0.24318842589855194,"1259":-2.160623073577881,"1260":-5.268084526062012,"1261":1.5481632947921753,"1262":-1.3004528284072876,"1263":1.8040696382522583,"1264":1.8017998933792114,"1265":-2.826551914215088,"1266":-0.8267250061035156,"1267":-1.715469479560852,"1268":1.3517965078353882,"1269":-0.5436718463897705,"1270":3.5115203857421875,"1271":2.768524169921875,"1272":0.08462078869342804,"1273":-1.063117265701294,"1274":0.8749628067016602,"1275":4.489327430725098,"1276":-0.932662308216095,"1277":-1.0554018020629883,"1278":2.3982601165771484,"1279":-1.7767207622528076,"1280":3.1433539390563965,"1281":-2.889132022857666,"1282":0.31138452887535095,"1283":1.3362895250320435,"1284":3.4800798892974854,"1285":-0.3307363986968994,"1286":-1.385140299797058,"1287":-1.807944893836975,"1288":-1.5303699970245361,"1289":-0.23656690120697021,"1290":-5.250552654266357,"1291":-1.5680543184280396,"1292":6.635993003845215,"1293":-0.9052576422691345,"1294":-4.710704803466797,"1295":0.8228216767311096,"1296":-3.226310968399048,"1297":-4.5877299308776855,"1298":-1.2085627317428589,"1299":2.1725010871887207,"1300":4.613865375518799,"1301":0.6153457164764404,"1302":0.24614077806472778,"1303":2.919431686401367,"1304":1.6711446046829224,"1305":3.1780855655670166,"1306":-4.3118977546691895,"1307":1.1649360656738281,"1308":1.663097858428955,"1309":-5.576831817626953,"1310":-0.21387161314487457,"1311":3.98230242729187,"1312":0.5544986128807068,"1313":7.297040939331055,"1314":-3.4746813774108887,"1315":0.5497755408287048,"1316":1.8767485618591309,"1317":3.524538516998291,"1318":-4.3753662109375,"1319":-2.9450387954711914,"1320":2.372239828109741,"1321":-4.144930362701416,"1322":-3.8575751781463623,"1323":4.77263069152832,"1324":2.917586088180542,"1325":3.3934030532836914,"1326":-2.20965313911438,"1327":-2.5793964862823486,"1328":0.06845694780349731,"1329":4.47844123840332,"1330":-1.077034592628479,"1331":4.188222408294678,"1332":2.6925153732299805,"1333":-0.5214515924453735,"1334":6.119631290435791,"1335":1.116806983947754,"1336":0.7130507230758667,"1337":-1.1823904514312744,"1338":1.3334805965423584,"1339":-0.5131728053092957,"1340":-0.607719361782074,"1341":0.21941371262073517,"1342":1.5595173835754395,"1343":-1.0081114768981934,"1344":0.8161288499832153,"1345":-4.68942928314209,"1346":-2.2617897987365723,"1347":-3.807432174682617,"1348":-0.5643866062164307,"1349":-0.9817786812782288,"1350":-0.422018826007843,"1351":0.3634060025215149,"1352":-4.806274890899658,"1353":1.9283037185668945,"1354":-0.9323030114173889,"1355":3.3982698917388916,"1356":-0.03279270604252815,"1357":0.699640154838562,"1358":0.5221977233886719,"1359":-0.9815647602081299,"1360":2.9507243633270264,"1361":1.422424554824829,"1362":-0.7134104371070862,"1363":-4.402400016784668,"1364":-0.02786705270409584,"1365":2.7863149642944336,"1366":-0.20502212643623352,"1367":-1.8978735208511353,"1368":4.024813175201416,"1369":-4.980579376220703,"1370":-0.1890893280506134,"1371":-6.5615153312683105,"1372":-0.7302049994468689,"1373":3.219162702560425,"1374":-0.019671212881803513,"1375":0.5818313360214233,"1376":1.3821914196014404,"1377":0.7507374286651611,"1378":-0.9971107244491577,"1379":-2.7872679233551025,"1380":-1.8555676937103271,"1381":-1.5794363021850586,"1382":0.6112073063850403,"1383":3.883915901184082,"1384":0.4738442599773407,"1385":-5.027868270874023,"1386":-0.4868425726890564,"1387":-1.7118654251098633,"1388":-0.4502219259738922,"1389":1.4299099445343018,"1390":1.3207132816314697,"1391":-3.1606874465942383,"1392":-2.053783655166626,"1393":4.059720993041992,"1394":-5.6983113288879395,"1395":5.246577262878418,"1396":1.1293623447418213,"1397":-4.058279514312744,"1398":0.5709805488586426,"1399":1.1566171646118164,"1400":0.5463481545448303,"1401":2.2604336738586426,"1402":-1.4965182542800903,"1403":-4.393455505371094,"1404":1.5703563690185547,"1405":-0.28647613525390625,"1406":2.0000269412994385,"1407":-0.9069467782974243,"1408":-0.346416175365448,"1409":-2.8488779067993164,"1410":-1.0543383359909058,"1411":1.9219319820404053,"1412":2.1226930618286133,"1413":0.8749361634254456,"1414":-0.3062249720096588,"1415":1.1305172443389893,"1416":-1.7759171724319458,"1417":1.9469037055969238,"1418":2.244933843612671,"1419":-1.594387412071228,"1420":-1.0529906749725342,"1421":0.6054620146751404,"1422":1.5495901107788086,"1423":-2.2339301109313965,"1424":1.7697116136550903,"1425":-0.08117496222257614,"1426":-0.866619884967804,"1427":0.16236844658851624,"1428":-1.0543054342269897,"1429":-0.7627506852149963,"1430":1.1231064796447754,"1431":0.08375915884971619,"1432":3.803940534591675,"1433":0.8888677954673767,"1434":-0.8021783828735352,"1435":-0.6190550327301025,"1436":0.7422553896903992,"1437":-1.339963674545288,"1438":-1.138035774230957,"1439":-0.9686110615730286,"1440":0.09317488968372345,"1441":0.4408189356327057,"1442":-0.8968049883842468,"1443":-2.365384578704834,"1444":-1.5559697151184082,"1445":1.1742053031921387,"1446":2.698713779449463,"1447":0.542577862739563,"1448":-0.059060581028461456,"1449":0.2456003874540329,"1450":0.916073739528656,"1451":-0.5013919472694397,"1452":1.4832267761230469,"1453":-1.2713392972946167,"1454":0.09335286170244217,"1455":-0.37708309292793274,"1456":0.24498143792152405,"1457":-2.204822301864624,"1458":2.1417782306671143,"1459":2.137036085128784,"1460":-0.787449300289154,"1461":0.6797032356262207,"1462":-1.58525550365448,"1463":3.8396880626678467,"1464":-1.0434316396713257,"1465":3.6828606128692627,"1466":-0.4888056814670563,"1467":-1.8470364809036255,"1468":-1.7309683561325073,"1469":0.3205348253250122,"1470":2.6297976970672607,"1471":0.12221772223711014,"1472":1.534246802330017,"1473":0.4577646553516388,"1474":-0.45762982964515686,"1475":-1.293752670288086,"1476":-0.2171812653541565,"1477":0.7260146141052246,"1478":2.3416640758514404,"1479":0.47772836685180664,"1480":-3.2978382110595703,"1481":0.03134845197200775,"1482":-5.527799606323242,"1483":-3.5735926628112793,"1484":-1.818545937538147,"1485":-0.06500422954559326,"1486":0.634525716304779,"1487":-7.60981559753418,"1488":2.8550941944122314,"1489":4.336904525756836,"1490":-0.7364342212677002,"1491":4.972063064575195,"1492":5.53175687789917,"1493":-0.0062111117877066135,"1494":-1.0380783081054688,"1495":3.4811298847198486,"1496":1.9508734941482544,"1497":-0.7566550970077515,"1498":-0.2336755394935608,"1499":5.984633445739746,"1500":-6.872183799743652,"1501":1.1699318885803223,"1502":1.5037736892700195,"1503":-4.570156097412109,"1504":1.2143335342407227,"1505":6.324469089508057,"1506":3.652825117111206,"1507":3.683337926864624,"1508":-5.098837375640869,"1509":-5.1394877433776855,"1510":0.957248866558075,"1511":-4.095434188842773,"1512":-6.607594966888428,"1513":-4.387832164764404,"1514":6.041903495788574,"1515":1.820141315460205,"1516":-5.922774791717529,"1517":-3.453742027282715,"1518":-0.5076191425323486,"1519":0.0541873574256897,"1520":2.4987261295318604,"1521":2.411188840866089,"1522":-1.8658157587051392,"1523":-1.065995454788208,"1524":-3.103670358657837,"1525":-5.131086349487305,"1526":2.616386890411377,"1527":6.569840431213379,"1528":-0.08600827306509018,"1529":4.96204137802124,"1530":-2.6736974716186523,"1531":-5.558809280395508,"1532":2.2128124237060547,"1533":2.1730294227600098,"1534":0.3657800555229187,"1535":5.482337951660156,"1536":-4.372286319732666,"1537":5.552630424499512,"1538":8.438983917236328,"1539":2.7468202114105225,"1540":-3.761927366256714,"1541":-4.617972373962402,"1542":7.246266841888428,"1543":-5.133554458618164,"1544":-2.0949277877807617,"1545":7.457598686218262,"1546":3.4736852645874023,"1547":5.300410747528076,"1548":-7.410102844238281,"1549":-3.8843345642089844,"1550":-4.461738586425781,"1551":7.404115676879883,"1552":3.4566240310668945,"1553":4.176079273223877,"1554":-2.9077348709106445,"1555":1.1347200870513916,"1556":2.792055130004883,"1557":1.3767699003219604,"1558":-1.6558659076690674,"1559":-0.23632101714611053,"1560":-0.366457462310791,"1561":2.408264636993408,"1562":-0.9594938158988953,"1563":-3.136178731918335,"1564":-0.14674966037273407,"1565":-2.889303207397461,"1566":1.8131977319717407,"1567":-1.001586675643921,"1568":1.5806794166564941,"1569":-2.868474006652832,"1570":4.122122287750244,"1571":4.262253284454346,"1572":-0.7270568609237671,"1573":0.22421588003635406,"1574":-0.25759342312812805,"1575":-2.9527461528778076,"1576":0.7656238079071045,"1577":1.3552732467651367,"1578":1.157055377960205,"1579":-1.9915517568588257,"1580":-6.331912517547607,"1581":-2.3698487281799316,"1582":3.5868289470672607,"1583":-0.6249566078186035,"1584":-0.7284894585609436,"1585":2.317233085632324,"1586":-0.7719050645828247,"1587":-0.06725137680768967,"1588":1.7915005683898926,"1589":2.8547167778015137,"1590":3.5316576957702637,"1591":-0.6372724175453186,"1592":1.5410350561141968,"1593":2.6950011253356934,"1594":-0.3982309103012085,"1595":0.22463107109069824,"1596":-4.8688859939575195,"1597":-0.7208622694015503,"1598":7.462089538574219,"1599":0.35027724504470825,"1600":1.4393771886825562,"1601":-6.85578727722168,"1602":-2.8928139209747314,"1603":-3.5765860080718994,"1604":-1.6960550546646118,"1605":0.20600274205207825,"1606":-0.2871357500553131,"1607":-5.176914215087891,"1608":0.3992026448249817,"1609":-3.628080368041992,"1610":0.12240255624055862,"1611":-0.03584807738661766,"1612":-1.8597522974014282,"1613":1.047499418258667,"1614":-2.658559799194336,"1615":3.2113945484161377,"1616":-2.1037583351135254,"1617":5.102464199066162,"1618":-1.156651496887207,"1619":-0.2827569246292114,"1620":-7.661828517913818,"1621":-4.565946578979492,"1622":1.9576061964035034,"1623":5.673795223236084,"1624":4.91011905670166,"1625":-2.249311923980713,"1626":-0.21893391013145447,"1627":-1.858008861541748,"1628":2.557055711746216,"1629":0.8404381275177002,"1630":-4.554969310760498,"1631":0.9056230187416077,"1632":1.0576343536376953,"1633":0.9208204746246338,"1634":2.1061906814575195,"1635":0.7129805684089661,"1636":-2.374399185180664,"1637":-0.3944184482097626,"1638":-4.730917930603027,"1639":-0.25229957699775696,"1640":0.8623716235160828,"1641":3.5428037643432617,"1642":2.3932666778564453,"1643":-0.48361605405807495,"1644":-4.423393726348877,"1645":-3.219977855682373,"1646":-0.13870620727539062,"1647":-3.291738748550415,"1648":0.8526358604431152,"1649":-5.955531120300293,"1650":3.820875883102417,"1651":-4.035299301147461,"1652":-3.0194051265716553,"1653":1.3376975059509277,"1654":5.853182315826416,"1655":6.651785373687744,"1656":-3.20670485496521,"1657":-1.076125144958496,"1658":3.1244587898254395,"1659":2.8523237705230713,"1660":-0.6590272784233093,"1661":-5.216144561767578,"1662":-0.18426847457885742,"1663":4.663640022277832,"1664":-0.035283081233501434,"1665":0.5983735918998718,"1666":1.7672983407974243,"1667":-0.561569333076477,"1668":1.914624571800232,"1669":1.0994359254837036,"1670":3.5451302528381348,"1671":0.2119450867176056,"1672":-3.6856017112731934,"1673":-2.7277867794036865,"1674":-1.0183309316635132,"1675":2.011192798614502,"1676":-1.16359281539917,"1677":1.1344135999679565,"1678":-0.521364152431488,"1679":-1.1400874853134155,"1680":0.5045719742774963,"1681":3.5592100620269775,"1682":-0.830502450466156,"1683":-0.4659197926521301,"1684":0.3554683327674866,"1685":-1.2057147026062012,"1686":0.5676203370094299,"1687":5.277990818023682,"1688":-2.1602442264556885,"1689":-1.9365298748016357,"1690":3.4094443321228027,"1691":-2.1022133827209473,"1692":0.10256003588438034,"1693":0.752315104007721,"1694":5.81290864944458,"1695":1.407238245010376,"1696":1.7447537183761597,"1697":-4.555810928344727,"1698":-4.864687919616699,"1699":1.084465742111206,"1700":1.1041196584701538,"1701":7.012819290161133,"1702":2.802877426147461,"1703":2.4852335453033447,"1704":0.6297815442085266,"1705":-1.925799012184143,"1706":2.9031639099121094,"1707":2.4071176052093506,"1708":-0.3579021990299225,"1709":-1.6542614698410034,"1710":0.9495174884796143,"1711":-1.3693863153457642,"1712":-0.5559477210044861,"1713":1.9334664344787598,"1714":-1.4848614931106567,"1715":-1.0724672079086304,"1716":1.386122465133667,"1717":-1.9379900693893433,"1718":2.103950262069702,"1719":0.6541929244995117,"1720":-2.3227272033691406,"1721":-1.5376018285751343,"1722":-6.0501179695129395,"1723":0.01004517637193203,"1724":2.7290549278259277,"1725":2.028853416442871,"1726":-0.46363744139671326,"1727":-3.0251541137695312,"1728":4.192521572113037,"1729":-1.2897597551345825,"1730":1.5924739837646484,"1731":-0.6679033637046814,"1732":-0.6009669899940491,"1733":3.229255199432373,"1734":3.540271043777466,"1735":3.4686615467071533,"1736":-1.871842861175537,"1737":1.2605805397033691,"1738":0.8518543839454651,"1739":-1.2447824478149414,"1740":-0.624841034412384,"1741":-0.9435530304908752,"1742":0.44811397790908813,"1743":-0.3228577673435211,"1744":2.0000107288360596,"1745":1.31206214427948,"1746":0.8761088252067566,"1747":-0.3418043851852417,"1748":0.5559852123260498,"1749":-0.11293772608041763,"1750":-1.484670639038086,"1751":-6.492356777191162,"1752":4.1432271003723145,"1753":1.801363229751587,"1754":0.9713150262832642,"1755":0.7022377252578735,"1756":-4.553738117218018,"1757":-2.911872386932373,"1758":0.5909658074378967,"1759":0.27343249320983887,"1760":-5.727770805358887,"1761":0.6162430644035339,"1762":-0.42813894152641296,"1763":-1.049580693244934,"1764":-4.963686943054199,"1765":-0.7672556042671204,"1766":-5.479191780090332,"1767":-3.4731497764587402,"1768":2.122224807739258,"1769":-0.8353934288024902,"1770":5.08477783203125,"1771":-1.861492395401001,"1772":3.4447672367095947,"1773":-1.9914134740829468,"1774":0.47125208377838135,"1775":1.647369623184204,"1776":8.239019393920898,"1777":3.7818424701690674,"1778":1.2214360237121582,"1779":-3.5969409942626953,"1780":8.201260566711426,"1781":9.81322956085205,"1782":-2.6187703609466553,"1783":3.217827796936035,"1784":3.8272197246551514,"1785":-2.400460720062256,"1786":-3.9099252223968506,"1787":-1.4245766401290894,"1788":-9.926671028137207,"1789":1.905012845993042,"1790":0.7125571966171265,"1791":-5.757667541503906,"1792":-3.2653729915618896,"1793":-1.9974254369735718,"1794":-3.5119283199310303,"1795":-0.22283156216144562,"1796":-3.3046703338623047,"1797":3.6811084747314453,"1798":3.061426877975464,"1799":-2.5387258529663086,"1800":0.7253994345664978,"1801":-8.926298141479492,"1802":2.603097677230835,"1803":-0.6535056233406067,"1804":3.9217963218688965,"1805":-2.356275796890259,"1806":0.20357055962085724,"1807":4.512394905090332,"1808":7.633042335510254,"1809":2.650311231613159,"1810":-0.5706440806388855,"1811":7.691219329833984,"1812":5.442835807800293,"1813":2.5278215408325195,"1814":-1.9286348819732666,"1815":-0.4867902398109436,"1816":6.456582546234131,"1817":-2.005117654800415,"1818":1.1625324487686157,"1819":5.330540657043457,"1820":4.467067241668701,"1821":-3.152343511581421,"1822":-6.391394138336182,"1823":-5.298436164855957,"1824":-1.806270956993103,"1825":-1.9717762470245361,"1826":11.656033515930176,"1827":6.299572467803955,"1828":-4.1836323738098145,"1829":1.3308480978012085,"1830":-7.11531400680542,"1831":-5.212836742401123,"1832":3.6188199520111084,"1833":-9.475552558898926,"1834":-5.470676898956299,"1835":3.4720420837402344,"1836":3.483617067337036,"1837":1.0363881587982178,"1838":-3.0195791721343994,"1839":3.283231258392334,"1840":-5.671362400054932,"1841":-3.358577013015747,"1842":2.618905782699585,"1843":-4.0060319900512695,"1844":4.277196884155273,"1845":-5.379693031311035,"1846":11.265539169311523,"1847":-5.2316436767578125,"1848":-1.5630269050598145,"1849":-0.8177198171615601,"1850":-1.0544601678848267,"1851":0.6826249957084656,"1852":-0.9581997990608215,"1853":0.34082287549972534,"1854":1.5146214962005615,"1855":-0.7381168007850647,"1856":-2.2634716033935547,"1857":1.98550546169281,"1858":0.4174697995185852,"1859":-0.8254678249359131,"1860":-2.509438991546631,"1861":-0.6635702848434448,"1862":-1.7322520017623901,"1863":-0.31134992837905884,"1864":-1.5068696737289429,"1865":0.3798644542694092,"1866":-1.656908631324768,"1867":-2.435262441635132,"1868":0.8596815466880798,"1869":-0.4698612689971924,"1870":1.9943243265151978,"1871":-0.45853325724601746,"1872":-3.5277388095855713,"1873":-1.2880488634109497,"1874":-0.4632663428783417,"1875":3.1514053344726562,"1876":2.0296289920806885,"1877":-0.9325267672538757,"1878":0.11308366805315018,"1879":-1.4312858581542969,"1880":-0.49171027541160583,"1881":-2.6581218242645264,"1882":-3.473339319229126,"1883":-1.4203633069992065,"1884":-0.9669288992881775,"1885":0.6998562216758728,"1886":-1.682589054107666,"1887":1.5191192626953125,"1888":0.6491570472717285,"1889":2.0821988582611084,"1890":0.2600874900817871,"1891":0.5752807259559631,"1892":2.334874153137207,"1893":-0.9034777283668518,"1894":-3.196807384490967,"1895":-0.4261426627635956,"1896":-0.5454790592193604,"1897":3.697890520095825,"1898":0.33704468607902527,"1899":1.4817453622817993,"1900":-1.6460930109024048,"1901":-1.1804907321929932,"1902":0.3678037226200104,"1903":2.611881732940674,"1904":0.6462938189506531,"1905":2.8686301708221436,"1906":-0.7718104124069214,"1907":0.6531819105148315,"1908":3.4912056922912598,"1909":-1.2353792190551758,"1910":1.4159172773361206,"1911":-1.6493289470672607,"1912":-0.7465674877166748,"1913":-0.30014166235923767,"1914":2.254030466079712,"1915":2.0951833724975586,"1916":3.2842583656311035,"1917":2.327981948852539,"1918":-1.775300145149231,"1919":-4.089879035949707,"1920":-3.899219274520874,"1921":3.7601470947265625,"1922":-1.439887523651123,"1923":3.7528109550476074,"1924":2.2067930698394775,"1925":-14.616246223449707,"1926":-3.1578590869903564,"1927":-5.371963977813721,"1928":-3.7158193588256836,"1929":4.84052038192749,"1930":-9.546823501586914,"1931":-8.278473854064941,"1932":4.327700138092041,"1933":5.360905170440674,"1934":-7.84496545791626,"1935":-0.9791244268417358,"1936":9.063414573669434,"1937":-12.959681510925293,"1938":6.531306743621826,"1939":6.392153263092041,"1940":10.21184253692627,"1941":-10.048673629760742,"1942":6.296938419342041,"1943":1.4400643110275269,"1944":2.3441035747528076,"1945":10.649553298950195,"1946":-3.05070424079895,"1947":6.510441303253174,"1948":20.36397933959961,"1949":18.905359268188477,"1950":-0.6715180277824402,"1951":-1.9747967720031738,"1952":0.001585526391863823,"1953":-8.402534484863281,"1954":1.0817413330078125,"1955":-1.2379509210586548,"1956":-17.926576614379883,"1957":3.4792428016662598,"1958":12.670744895935059,"1959":-21.853347778320312,"1960":-5.501008987426758,"1961":12.021193504333496,"1962":-7.089786529541016,"1963":-10.958856582641602,"1964":4.329018592834473,"1965":0.008983302861452103,"1966":11.255135536193848,"1967":-5.807407855987549,"1968":4.44094181060791,"1969":5.447157382965088,"1970":-1.8981722593307495,"1971":-1.8689730167388916,"1972":-0.4422006607055664,"1973":3.17336106300354,"1974":-13.958944320678711,"1975":-2.97489857673645,"1976":-6.109036922454834,"1977":2.992811918258667,"1978":-2.5972042083740234,"1979":1.3414918184280396,"1980":-11.17479133605957,"1981":13.367040634155273,"1982":11.694591522216797,"1983":-12.875459671020508,"1984":-10.601560592651367,"1985":-6.415633678436279,"1986":-11.149231910705566,"1987":-0.7498502731323242,"1988":5.205835342407227,"1989":19.978199005126953,"1990":-16.76432228088379,"1991":12.113372802734375,"1992":-11.07371711730957,"1993":1.2839031219482422,"1994":13.885676383972168,"1995":9.398401260375977,"1996":5.063992500305176,"1997":-4.377375602722168,"1998":-8.677441596984863,"1999":-5.506673812866211,"2000":2.0290284156799316,"2001":0.4107350707054138,"2002":-7.5520195960998535,"2003":2.071321964263916,"2004":-4.032968044281006,"2005":-1.2724535465240479,"2006":8.307234764099121,"2007":16.84649085998535,"2008":-0.774724006652832,"2009":1.6063666343688965,"2010":4.951246738433838,"2011":-1.9590070247650146,"2012":1.1857342720031738,"2013":1.620693325996399,"2014":3.117248058319092,"2015":-0.2186713069677353,"2016":8.684523582458496,"2017":0.37475764751434326,"2018":5.9287004470825195,"2019":4.825826168060303,"2020":-1.5413525104522705,"2021":-0.5169708132743835,"2022":10.198039054870605,"2023":14.373529434204102,"2024":-4.518241882324219,"2025":3.9008712768554688,"2026":3.3350439071655273,"2027":0.9266526103019714,"2028":3.553945779800415,"2029":-8.957718849182129,"2030":-9.300368309020996,"2031":-5.516429424285889,"2032":0.8155027627944946,"2033":-2.53835129737854,"2034":-4.325544834136963,"2035":5.194805145263672,"2036":-5.36216926574707,"2037":2.7161848545074463,"2038":6.537612438201904,"2039":-1.9778767824172974,"2040":-2.204160213470459,"2041":1.8313252925872803,"2042":2.3935251235961914,"2043":6.577489376068115,"2044":-7.734670639038086,"2045":-3.464404821395874,"2046":-4.99355936050415,"2047":2.6089069843292236,"2048":0.09230785816907883,"2049":-2.967379093170166,"2050":-0.25961220264434814,"2051":2.61301589012146,"2052":3.604529619216919,"2053":0.5888137221336365,"2054":-4.52986478805542,"2055":6.756882190704346,"2056":7.337252616882324,"2057":-7.614289283752441,"2058":-5.693306922912598,"2059":-10.074034690856934,"2060":-4.511748790740967,"2061":4.0957722663879395,"2062":8.871392250061035,"2063":12.136530876159668,"2064":-3.6870081424713135,"2065":10.388854026794434,"2066":-12.597253799438477,"2067":3.7838828563690186,"2068":3.5295615196228027,"2069":6.538603782653809,"2070":-0.256438672542572,"2071":-4.477048873901367,"2072":1.6205435991287231,"2073":-3.4104206562042236,"2074":5.049742698669434,"2075":1.0103291273117065,"2076":1.7691495418548584,"2077":16.78957176208496,"2078":10.59170913696289,"2079":9.426591873168945,"2080":-7.907710075378418,"2081":0.5654575228691101,"2082":15.30284595489502,"2083":8.706487655639648,"2084":4.071305274963379,"2085":6.040996074676514,"2086":-6.0042805671691895,"2087":-3.9050180912017822,"2088":-6.6853861808776855,"2089":-0.9264413714408875,"2090":-4.9534735679626465,"2091":14.05748462677002,"2092":11.203231811523438,"2093":-4.086475849151611,"2094":-13.030214309692383,"2095":5.179003715515137,"2096":13.076089859008789,"2097":0.3330119252204895,"2098":-14.957962989807129,"2099":-6.6867804527282715,"2100":-2.6566336154937744,"2101":2.3933565616607666,"2102":1.2775206565856934,"2103":-9.117661476135254,"2104":5.7043585777282715,"2105":-2.9921350479125977,"2106":-11.178237915039062,"2107":6.432966709136963,"2108":-4.600050926208496,"2109":4.606662750244141,"2110":14.666263580322266,"2111":0.9038826823234558,"2112":-15.54051685333252,"2113":-8.272664070129395,"2114":4.315174102783203,"2115":-0.1756986826658249,"2116":-3.9202208518981934,"2117":-0.5856385827064514,"2118":-8.688433647155762,"2119":-3.75537371635437,"2120":2.0708096027374268,"2121":9.894404411315918,"2122":-11.033573150634766,"2123":11.777097702026367,"2124":5.890934467315674,"2125":-4.911187171936035,"2126":4.838080406188965,"2127":-5.904640197753906,"2128":16.581298828125,"2129":-19.163681030273438,"2130":-6.059718608856201,"2131":-4.324668884277344,"2132":13.958462715148926,"2133":19.090686798095703,"2134":-3.2881808280944824,"2135":3.487119436264038,"2136":-4.343354225158691,"2137":-0.19832564890384674,"2138":-0.9371165037155151,"2139":-15.268959045410156,"2140":7.314493179321289,"2141":-2.6638588905334473,"2142":-7.502604961395264,"2143":-9.383427619934082,"2144":-9.754520416259766,"2145":-4.2747416496276855,"2146":5.759682655334473,"2147":8.622611045837402,"2148":11.722611427307129,"2149":6.594245433807373,"2150":10.232194900512695,"2151":9.946392059326172,"2152":-5.1865949630737305,"2153":8.127307891845703,"2154":-2.3766093254089355,"2155":-5.0253729820251465,"2156":0.7255969047546387,"2157":-11.733474731445312,"2158":-8.963907241821289,"2159":-13.280280113220215,"2160":10.117032051086426,"2161":-17.279708862304688,"2162":6.425505638122559,"2163":5.355453014373779,"2164":-2.832890033721924,"2165":-13.264359474182129,"2166":0.8973327279090881,"2167":-0.2610832750797272,"2168":-4.016438961029053,"2169":2.992361068725586,"2170":2.0490541458129883,"2171":-13.726940155029297,"2172":4.785494327545166,"2173":-3.996511697769165,"2174":-1.5777853727340698,"2175":11.575638771057129,"2176":-5.177934646606445,"2177":10.861749649047852,"2178":8.993892669677734,"2179":12.245550155639648,"2180":1.575920581817627,"2181":-6.177254676818848,"2182":18.202550888061523,"2183":-4.470720291137695,"2184":-11.14627742767334,"2185":-7.178286552429199,"2186":-2.104825496673584,"2187":9.165919303894043,"2188":11.59011459350586,"2189":23.203044891357422,"2190":6.695868968963623,"2191":-2.135253667831421,"2192":-4.729406833648682,"2193":-6.150278568267822,"2194":-18.206331253051758,"2195":-4.47068977355957,"2196":12.121530532836914,"2197":11.176895141601562,"2198":0.7471773624420166,"2199":-4.025062084197998,"2200":-5.97706413269043,"2201":-23.9952392578125,"2202":-3.1109261512756348,"2203":-2.6262965202331543,"2204":-26.51070213317871,"2205":-0.8732101321220398,"2206":4.319854259490967,"2207":8.937239646911621,"2208":-4.569235324859619,"2209":1.732835292816162,"2210":5.445712089538574,"2211":-8.986988067626953,"2212":-9.590534210205078,"2213":-3.4015860557556152,"2214":-4.687695503234863,"2215":6.700234889984131,"2216":7.861628532409668,"2217":-17.186077117919922,"2218":0.3751679062843323,"2219":-7.333686828613281,"2220":-4.345913410186768,"2221":9.90481185913086,"2222":-4.347645282745361,"2223":18.91878318786621,"2224":12.918917655944824,"2225":-4.531462669372559,"2226":-1.7885820865631104,"2227":-5.689807891845703,"2228":-18.403457641601562,"2229":-13.2833833694458,"2230":-0.2625780701637268,"2231":-5.5136542320251465,"2232":-9.820754051208496,"2233":3.898616313934326,"2234":23.20492935180664,"2235":-7.477301597595215,"2236":14.892913818359375,"2237":-1.5243335962295532,"2238":-11.805061340332031,"2239":-5.371596813201904,"2240":-3.606600284576416,"2241":-9.154707908630371,"2242":8.51836109161377,"2243":13.739815711975098,"2244":-8.587859153747559,"2245":-8.525156021118164,"2246":3.011380195617676,"2247":0.07801733165979385,"2248":4.774558067321777,"2249":-3.5606184005737305,"2250":-3.0287528038024902,"2251":24.268640518188477,"2252":10.046934127807617,"2253":10.94317626953125,"2254":-3.062211751937866,"2255":-3.7912514209747314,"2256":9.297676086425781,"2257":-10.279031753540039,"2258":-10.830507278442383,"2259":-16.44731903076172,"2260":-4.416038990020752,"2261":0.9653707146644592,"2262":10.230074882507324,"2263":0.6518777012825012,"2264":2.436575174331665,"2265":2.9759209156036377,"2266":9.702176094055176,"2267":-1.1051174402236938,"2268":-7.497321128845215,"2269":2.15439510345459,"2270":16.21435546875,"2271":17.7408447265625,"2272":19.479082107543945,"2273":-4.114229202270508,"2274":-5.801403522491455,"2275":-13.823965072631836,"2276":4.812057018280029,"2277":-8.357462882995605,"2278":-5.262414932250977,"2279":4.3222174644470215,"2280":2.2865588665008545,"2281":-4.8431267738342285,"2282":3.584944725036621,"2283":-3.883274793624878,"2284":-16.46270751953125,"2285":-8.444901466369629,"2286":0.6312685608863831,"2287":-12.319354057312012,"2288":19.02588653564453,"2289":-1.8254612684249878,"2290":16.572101593017578,"2291":2.4923095703125,"2292":8.433761596679688,"2293":-13.141337394714355,"2294":-0.7883063554763794,"2295":0.331930547952652,"2296":-0.26036328077316284,"2297":-0.3011725842952728,"2298":-1.9325059652328491,"2299":-1.7178094387054443,"2300":1.3325356245040894,"2301":5.448582172393799,"2302":-0.670718252658844,"2303":-4.449087619781494,"2304":2.0920283794403076,"2305":-1.1494849920272827,"2306":-1.5851314067840576,"2307":-2.831451177597046,"2308":2.1932034492492676,"2309":-2.1058969497680664,"2310":3.5027036666870117,"2311":1.3509628772735596,"2312":-1.5054973363876343,"2313":-0.45617640018463135,"2314":1.4985896348953247,"2315":1.9663165807724,"2316":2.3437249660491943,"2317":0.9631004929542542,"2318":-2.6079213619232178,"2319":-0.7841964960098267,"2320":-2.4351096153259277,"2321":-3.0060203075408936,"2322":1.824930191040039,"2323":2.9798455238342285,"2324":-0.8025302886962891,"2325":0.4183717668056488,"2326":2.993696928024292,"2327":-0.5265147089958191,"2328":-2.427314519882202,"2329":1.118806004524231,"2330":3.839942693710327,"2331":2.6310524940490723,"2332":-0.7650073170661926,"2333":-1.4672131538391113,"2334":-0.9554474353790283,"2335":-2.429081439971924,"2336":0.6139650940895081,"2337":-1.3275425434112549,"2338":0.8553565740585327,"2339":2.8370633125305176,"2340":0.7116047739982605,"2341":0.01615387387573719,"2342":-4.7288994789123535,"2343":-6.055520534515381,"2344":2.0905845165252686,"2345":0.5002487897872925,"2346":-1.560003638267517,"2347":-1.0558298826217651,"2348":-0.13482382893562317,"2349":-0.6144479513168335,"2350":3.7960336208343506,"2351":-3.1544783115386963,"2352":-3.0972328186035156,"2353":-0.4412911534309387,"2354":3.026026964187622,"2355":3.5827221870422363,"2356":1.506372094154358,"2357":1.2107195854187012,"2358":-6.47592306137085,"2359":-0.9740647077560425,"2360":-1.9768006801605225,"2361":-3.216189384460449,"2362":4.455389022827148,"2363":2.073902130126953,"2364":1.4568010568618774,"2365":-5.1699042320251465,"2366":-2.1112754344940186,"2367":-1.342832326889038,"2368":-3.984391450881958,"2369":5.256104946136475,"2370":1.7858798503875732,"2371":-1.297289490699768,"2372":-0.4833023250102997,"2373":-6.609845161437988,"2374":-1.3805575370788574,"2375":5.197203159332275,"2376":0.16819582879543304,"2377":-1.125307559967041,"2378":1.7784477472305298,"2379":-6.876662254333496,"2380":1.5152506828308105,"2381":1.3295862674713135,"2382":-1.3059148788452148,"2383":2.9840521812438965,"2384":-0.5051719546318054,"2385":1.718754768371582,"2386":-3.274909496307373,"2387":8.129908561706543,"2388":-0.6886461973190308,"2389":-3.9322965145111084,"2390":1.090440273284912,"2391":0.2775735855102539,"2392":-1.544008731842041,"2393":1.988141417503357,"2394":-3.4066896438598633,"2395":-6.123778820037842,"2396":-5.239184856414795,"2397":2.3998024463653564,"2398":-5.778054714202881,"2399":-5.850324630737305,"2400":-0.07357294112443924,"2401":-4.0994439125061035,"2402":0.05167567357420921,"2403":4.524209022521973,"2404":-2.050847053527832,"2405":-3.3844962120056152,"2406":1.037527084350586,"2407":0.4250788688659668,"2408":-0.8724987506866455,"2409":5.922341823577881,"2410":-0.7038945555686951,"2411":0.4287343919277191,"2412":-1.3262983560562134,"2413":-4.603259086608887,"2414":5.207258224487305,"2415":5.6831464767456055,"2416":0.06619471311569214,"2417":-0.8822673559188843,"2418":0.18227757513523102,"2419":-1.9299213886260986,"2420":0.8793236017227173,"2421":2.3916938304901123,"2422":-0.9774829745292664,"2423":2.4674930572509766,"2424":-1.1087818145751953,"2425":3.790640115737915,"2426":3.6065621376037598,"2427":-0.6393914222717285,"2428":-4.397611141204834,"2429":-0.9825043082237244,"2430":2.914036273956299,"2431":-1.047927975654602,"2432":-0.9665850400924683,"2433":-2.9063796997070312,"2434":1.8200132846832275,"2435":2.48352313041687,"2436":0.003058279864490032,"2437":-4.7422261238098145,"2438":-8.33731746673584,"2439":0.8340275883674622,"2440":-1.3974037170410156,"2441":5.290629863739014,"2442":2.492769479751587,"2443":-2.8115761280059814,"2444":-2.5031042098999023,"2445":10.911298751831055,"2446":1.7447869777679443,"2447":-4.6855854988098145,"2448":-3.0908360481262207,"2449":-4.378881454467773,"2450":-2.3069448471069336,"2451":-10.36508560180664,"2452":-1.4127082824707031,"2453":-10.946020126342773,"2454":-6.923506736755371,"2455":-0.07214240729808807,"2456":-2.013641357421875,"2457":-0.7032405734062195,"2458":-5.922825336456299,"2459":6.226446628570557,"2460":-6.869478702545166,"2461":0.19530770182609558,"2462":-2.0926108360290527,"2463":1.0428248643875122,"2464":8.439709663391113,"2465":1.977434754371643,"2466":-7.42633056640625,"2467":-7.244342803955078,"2468":-1.2374889850616455,"2469":-6.1143999099731445,"2470":1.223512887954712,"2471":-4.588027000427246,"2472":-6.73123025894165,"2473":3.989287853240967,"2474":1.8422387838363647,"2475":8.271262168884277,"2476":1.2136359214782715,"2477":-0.47179731726646423,"2478":1.769146203994751,"2479":4.381272315979004,"2480":-3.925837278366089,"2481":-11.497373580932617,"2482":-8.416929244995117,"2483":-0.9680352210998535,"2484":2.890099287033081,"2485":-1.4657073020935059,"2486":-1.1990211009979248,"2487":3.154942035675049,"2488":-0.08639498054981232,"2489":-2.4860599040985107,"2490":1.8902589082717896,"2491":-8.966598510742188,"2492":1.961192011833191,"2493":2.8448784351348877,"2494":-2.9103827476501465,"2495":-7.556452751159668,"2496":-4.354902744293213,"2497":-2.1874420642852783,"2498":-1.9870680570602417,"2499":-8.259743690490723,"2500":-0.44936007261276245,"2501":-2.2894084453582764,"2502":-3.310633897781372,"2503":0.14199461042881012,"2504":2.2688000202178955,"2505":-0.7452101707458496,"2506":-7.54184103012085,"2507":-0.42705032229423523,"2508":6.239417552947998,"2509":-4.089029312133789,"2510":2.318492889404297,"2511":-6.239767074584961,"2512":-2.2595396041870117,"2513":0.05204753950238228,"2514":-5.792820453643799,"2515":0.8119862079620361,"2516":11.360757827758789,"2517":7.072290897369385,"2518":8.08447265625,"2519":7.664547443389893,"2520":11.759076118469238,"2521":9.341596603393555,"2522":13.66623592376709,"2523":0.9209126234054565,"2524":-12.369202613830566,"2525":-12.597458839416504,"2526":0.7360218167304993,"2527":-6.383962631225586,"2528":-0.5848597884178162,"2529":-9.747030258178711,"2530":9.886907577514648,"2531":-15.062232971191406,"2532":0.8013524413108826,"2533":-6.2749247550964355,"2534":-15.904672622680664,"2535":-17.347620010375977,"2536":-9.281412124633789,"2537":-7.103231906890869,"2538":1.4025112390518188,"2539":10.797433853149414,"2540":-4.566342353820801,"2541":-4.294257640838623,"2542":9.559412956237793,"2543":-17.891136169433594,"2544":9.216796875,"2545":7.209841251373291,"2546":-0.42086684703826904,"2547":-11.019423484802246,"2548":21.12497901916504,"2549":22.859949111938477,"2550":3.4168968200683594,"2551":-6.4068803787231445,"2552":3.0996997356414795,"2553":-8.610949516296387,"2554":-12.512621879577637,"2555":-9.300406455993652,"2556":-20.80440330505371,"2557":6.917300701141357,"2558":12.819634437561035,"2559":17.8294677734375,"2560":5.452787399291992,"2561":11.824217796325684,"2562":6.8085503578186035,"2563":-2.0299813747406006,"2564":0.1968110352754593,"2565":-13.435639381408691,"2566":15.026385307312012,"2567":7.276164531707764,"2568":-6.544222831726074,"2569":-13.174515724182129,"2570":-2.4440717697143555,"2571":1.824925422668457,"2572":-1.0409375429153442,"2573":7.811075687408447,"2574":1.2020115852355957,"2575":3.843569278717041,"2576":-9.193062782287598,"2577":6.945834159851074,"2578":-9.53079605102539,"2579":11.362055778503418,"2580":3.1901495456695557,"2581":-11.921168327331543,"2582":-0.9513475894927979,"2583":-0.14132492244243622,"2584":8.999268531799316,"2585":-2.9977357387542725,"2586":-2.927811622619629,"2587":-15.146227836608887,"2588":8.438630104064941,"2589":5.611180305480957,"2590":3.486617088317871,"2591":-2.0799829959869385,"2592":4.559892654418945,"2593":9.317214012145996,"2594":-3.052236318588257,"2595":-1.1061497926712036,"2596":2.0515313148498535,"2597":0.5677533149719238,"2598":-6.200072765350342,"2599":-10.690741539001465,"2600":10.83935832977295,"2601":-10.515068054199219,"2602":2.493161678314209,"2603":1.2322181463241577,"2604":-6.135247707366943,"2605":-2.844386339187622,"2606":5.599827766418457,"2607":7.317756652832031,"2608":-5.578908920288086,"2609":3.406139850616455,"2610":4.183103084564209,"2611":1.4627230167388916,"2612":-4.4424052238464355,"2613":-3.756193161010742,"2614":-2.166303873062134,"2615":-5.738725662231445,"2616":-3.3347420692443848,"2617":-5.580935001373291,"2618":5.441451072692871,"2619":6.420879364013672,"2620":-10.197685241699219,"2621":-2.0980172157287598,"2622":6.294623851776123,"2623":8.042769432067871,"2624":1.000427484512329,"2625":0.006814976222813129,"2626":7.125121593475342,"2627":3.397857666015625,"2628":-2.44364333152771,"2629":-0.09695608168840408,"2630":-3.460367441177368,"2631":0.22363430261611938,"2632":6.458378791809082,"2633":3.188476324081421,"2634":-1.9480936527252197,"2635":1.5309617519378662,"2636":3.2109642028808594,"2637":-2.6202070713043213,"2638":-4.636490821838379,"2639":-1.014369249343872,"2640":-0.2957368791103363,"2641":6.411950588226318,"2642":5.77772331237793,"2643":-3.5930745601654053,"2644":-1.611788034439087,"2645":-5.971798419952393,"2646":-0.1780456304550171,"2647":-0.6108576655387878,"2648":-0.8780912756919861,"2649":-3.52978515625,"2650":-0.7198956608772278,"2651":8.299607276916504,"2652":-0.33311617374420166,"2653":2.682521104812622,"2654":5.066155910491943,"2655":-4.500534534454346,"2656":-2.820758581161499,"2657":-7.027124404907227,"2658":0.7153337597846985,"2659":-0.6972268223762512,"2660":3.3384206295013428,"2661":-3.6902928352355957,"2662":0.8884046077728271,"2663":-7.609869003295898,"2664":-10.789101600646973,"2665":7.057897567749023,"2666":3.209104061126709,"2667":-1.0349726676940918,"2668":-7.794565200805664,"2669":-4.937759876251221,"2670":-3.856325626373291,"2671":-4.358160972595215,"2672":2.1224887371063232,"2673":7.358674049377441,"2674":3.5100247859954834,"2675":7.843481063842773,"2676":-1.0260536670684814,"2677":-1.1465426683425903,"2678":-3.6821556091308594,"2679":3.299245595932007,"2680":4.389805316925049,"2681":0.9281919002532959,"2682":2.7833638191223145,"2683":0.1622852236032486,"2684":9.112622261047363,"2685":-1.7764805555343628,"2686":-10.19769287109375,"2687":5.790626049041748,"2688":3.663602828979492,"2689":2.6564574241638184,"2690":-9.651651382446289,"2691":1.321616530418396,"2692":13.845303535461426,"2693":-2.7729380130767822,"2694":6.657303333282471,"2695":6.008270263671875,"2696":-4.97280740737915,"2697":6.131185531616211,"2698":0.5602799654006958,"2699":-7.185166358947754,"2700":1.6044484376907349,"2701":6.331486225128174,"2702":9.082033157348633,"2703":11.72426700592041,"2704":6.710900783538818,"2705":-5.487753868103027,"2706":-12.549674987792969,"2707":-9.196965217590332,"2708":-9.570796012878418,"2709":11.622064590454102,"2710":-12.438438415527344,"2711":-11.255959510803223,"2712":2.4736127853393555,"2713":-9.06506061553955,"2714":-7.185214996337891,"2715":3.2288477420806885,"2716":-12.70753288269043,"2717":-3.655256986618042,"2718":16.730005264282227,"2719":-1.7248564958572388,"2720":-0.7801100015640259,"2721":-0.2597455680370331,"2722":4.3297648429870605,"2723":0.7281387448310852,"2724":1.4179538488388062,"2725":-1.630507230758667,"2726":2.103790044784546,"2727":5.8449811935424805,"2728":-3.8899803161621094,"2729":1.4705281257629395,"2730":-8.91309928894043,"2731":-4.124003887176514,"2732":-4.8213887214660645,"2733":6.185730934143066,"2734":17.629533767700195,"2735":-2.6841609477996826,"2736":0.5517159104347229,"2737":-1.5858420133590698,"2738":8.38534164428711,"2739":-0.5168886780738831,"2740":22.714990615844727,"2741":22.558704376220703,"2742":12.690293312072754,"2743":11.302828788757324,"2744":25.947296142578125,"2745":9.100421905517578,"2746":-10.90316104888916,"2747":-12.527393341064453,"2748":13.740921974182129,"2749":-12.91256046295166,"2750":-0.5729005932807922,"2751":2.047834873199463,"2752":5.969448566436768,"2753":-19.02848243713379,"2754":3.531461715698242,"2755":6.344415664672852,"2756":-8.899985313415527,"2757":-10.899541854858398,"2758":9.226101875305176,"2759":3.55393648147583,"2760":-3.8599486351013184,"2761":6.816446781158447,"2762":-11.123552322387695,"2763":-3.3221774101257324,"2764":-3.9971444606781006,"2765":5.4862446784973145,"2766":1.3779815435409546,"2767":23.77637481689453,"2768":2.146662950515747,"2769":-16.224037170410156,"2770":13.742456436157227,"2771":-12.792715072631836,"2772":-18.076337814331055,"2773":-13.029953002929688,"2774":1.9783755540847778,"2775":5.281885623931885,"2776":-14.247939109802246,"2777":-17.238718032836914,"2778":-9.958746910095215,"2779":-17.1091365814209,"2780":2.5060067176818848,"2781":19.257287979125977,"2782":0.7840265035629272,"2783":3.6847403049468994,"2784":0.031057734042406082,"2785":-4.168382167816162,"2786":-17.170066833496094,"2787":-10.873676300048828,"2788":-9.633111000061035,"2789":1.1796303987503052,"2790":-10.687623977661133,"2791":-21.916093826293945,"2792":18.1025333404541,"2793":-14.05649185180664,"2794":13.612215042114258,"2795":-13.646367073059082,"2796":-21.173458099365234,"2797":-6.7553839683532715,"2798":14.084891319274902,"2799":11.434840202331543,"2800":-18.095415115356445,"2801":18.317720413208008,"2802":5.04461145401001,"2803":-7.01652717590332,"2804":-3.584254741668701,"2805":-2.6138646602630615,"2806":5.5744194984436035,"2807":1.9336508512496948,"2808":-6.580096244812012,"2809":-6.774042129516602,"2810":-1.0187777280807495,"2811":-5.52767276763916,"2812":5.105196475982666,"2813":-3.3258228302001953,"2814":0.8967704772949219,"2815":7.240162372589111,"2816":14.108078002929688,"2817":-4.633230209350586,"2818":1.7140127420425415,"2819":-39.4706916809082,"2820":-17.363239288330078,"2821":12.680869102478027,"2822":-2.6741957664489746,"2823":8.769582748413086,"2824":-16.71202278137207,"2825":9.444185256958008,"2826":34.43937683105469,"2827":12.973475456237793,"2828":18.125774383544922,"2829":-3.308596611022949,"2830":-0.29017460346221924,"2831":-30.324047088623047,"2832":-2.064331293106079,"2833":19.182586669921875,"2834":24.729434967041016,"2835":-2.1072938442230225,"2836":-16.978599548339844,"2837":3.923449754714966,"2838":-16.220911026000977,"2839":10.306448936462402,"2840":-5.0474348068237305,"2841":10.428293228149414,"2842":8.452235221862793,"2843":32.23723602294922,"2844":-4.3701958656311035,"2845":3.149859666824341,"2846":29.44216537475586,"2847":-19.775365829467773,"2848":0.9232715964317322,"2849":-32.19456100463867,"2850":6.917672634124756,"2851":-3.582698345184326,"2852":-17.19432258605957,"2853":7.254091262817383,"2854":-4.617344379425049,"2855":12.111023902893066,"2856":14.550646781921387,"2857":6.051146507263184,"2858":30.750686645507812,"2859":-10.54751968383789,"2860":12.405590057373047,"2861":-3.3953070640563965,"2862":-6.275448799133301,"2863":-8.724663734436035,"2864":8.309767723083496,"2865":-15.520177841186523,"2866":4.854874134063721,"2867":-1.182657241821289,"2868":-16.39240074157715,"2869":-8.786697387695312,"2870":-1.1004414558410645,"2871":-19.541366577148438,"2872":-21.0659122467041,"2873":-2.670473098754883,"2874":0.03505643084645271,"2875":-11.244318008422852,"2876":10.483710289001465,"2877":15.996124267578125,"2878":-17.254375457763672,"2879":4.709990501403809,"2880":9.1340913772583,"2881":18.158950805664062,"2882":10.660117149353027,"2883":3.687464952468872,"2884":15.054999351501465,"2885":-6.997986316680908,"2886":8.130242347717285,"2887":-4.411956310272217,"2888":11.152031898498535,"2889":-8.126192092895508,"2890":-4.6389875411987305,"2891":-3.2898385524749756,"2892":-5.139930248260498,"2893":4.576122283935547,"2894":2.6131253242492676,"2895":0.4955519139766693,"2896":-5.900260925292969,"2897":-4.576167583465576,"2898":-0.5870935916900635,"2899":-8.256722450256348,"2900":-6.970002174377441,"2901":4.566096782684326,"2902":3.955824613571167,"2903":-1.5328723192214966,"2904":-4.354881286621094,"2905":2.010514736175537,"2906":1.4354591369628906,"2907":9.518345832824707,"2908":0.36028754711151123,"2909":2.1438958644866943,"2910":19.02206039428711,"2911":5.253960132598877,"2912":3.0753793716430664,"2913":9.455187797546387,"2914":0.5791133046150208,"2915":-2.3399603366851807,"2916":6.372326374053955,"2917":6.0385284423828125,"2918":-7.441404342651367,"2919":16.930843353271484,"2920":6.531908988952637,"2921":-4.07403564453125,"2922":-5.881908893585205,"2923":7.6311774253845215,"2924":-2.885035991668701,"2925":-5.219484329223633,"2926":-6.530264854431152,"2927":7.647799015045166,"2928":-3.962656021118164,"2929":-0.3805464506149292,"2930":-3.359431266784668,"2931":5.400962829589844,"2932":6.845486640930176,"2933":0.36657461524009705,"2934":6.165686130523682,"2935":-8.52428150177002,"2936":-16.275083541870117,"2937":-8.70041561126709,"2938":-7.969768524169922,"2939":-0.6965307593345642,"2940":8.998446464538574,"2941":2.931377649307251,"2942":-5.357342720031738,"2943":5.080831527709961,"2944":12.466483116149902,"2945":-1.5850859880447388,"2946":2.707859992980957,"2947":-4.817042350769043,"2948":-6.769413948059082,"2949":-1.763301968574524,"2950":7.912603378295898,"2951":8.807722091674805,"2952":-5.2680768966674805,"2953":7.608344078063965,"2954":-5.613272666931152,"2955":-0.14555704593658447,"2956":-2.0318050384521484,"2957":8.972350120544434,"2958":-1.198723554611206,"2959":4.483119487762451,"2960":-4.253021240234375,"2961":4.622852802276611,"2962":-2.5130186080932617,"2963":8.968779563903809,"2964":0.12346158176660538,"2965":-1.085996150970459,"2966":6.055061340332031,"2967":-2.630343437194824,"2968":-2.139087200164795,"2969":-4.467733860015869,"2970":7.649623870849609,"2971":-6.235170841217041,"2972":0.24502333998680115,"2973":14.779773712158203,"2974":0.48229503631591797,"2975":-9.370504379272461,"2976":-1.6063392162322998,"2977":2.6226718425750732,"2978":-7.028350353240967,"2979":-9.111039161682129,"2980":6.780885696411133,"2981":-15.532515525817871,"2982":1.7750771045684814,"2983":1.5827341079711914,"2984":3.4509360790252686,"2985":-1.1082520484924316,"2986":-4.63534688949585,"2987":9.192147254943848,"2988":12.762696266174316,"2989":11.001457214355469,"2990":9.854531288146973,"2991":4.771050930023193,"2992":9.640088081359863,"2993":-11.14636516571045,"2994":-2.9761414527893066,"2995":10.752531051635742,"2996":2.0540239810943604,"2997":13.153702735900879,"2998":-7.677248954772949,"2999":-1.1218053102493286,"3000":-4.12384033203125,"3001":-0.6029071807861328,"3002":1.3284577131271362,"3003":-4.490876197814941,"3004":-3.923645496368408,"3005":-4.868536472320557,"3006":-6.147764205932617,"3007":0.9986646175384521,"3008":-16.817304611206055,"3009":12.560395240783691,"3010":-7.207428455352783,"3011":7.331680774688721,"3012":-8.974516868591309,"3013":1.8182125091552734,"3014":12.308659553527832,"3015":-10.295225143432617,"3016":10.936484336853027,"3017":-5.479456424713135,"3018":-1.445690631866455,"3019":8.936006546020508,"3020":-0.6131741404533386,"3021":11.376858711242676,"3022":1.4646906852722168,"3023":-0.20122750103473663,"3024":5.944754600524902,"3025":-0.4575215280056,"3026":-0.017021896317601204,"3027":-8.46256160736084,"3028":8.083882331848145,"3029":0.4068901538848877,"3030":6.943137168884277,"3031":-7.268472194671631,"3032":-3.9886064529418945,"3033":-0.36555910110473633,"3034":11.25117015838623,"3035":-3.0495033264160156,"3036":1.350569725036621,"3037":4.594931602478027,"3038":11.533005714416504,"3039":0.5921681523323059,"3040":3.5507991313934326,"3041":-8.259777069091797,"3042":-8.106096267700195,"3043":6.537631034851074,"3044":10.439075469970703,"3045":-6.712239742279053,"3046":-3.5774505138397217,"3047":2.789001703262329,"3048":3.2071447372436523,"3049":-7.810813903808594,"3050":0.1165480688214302,"3051":4.223211288452148,"3052":-8.903647422790527,"3053":-10.512510299682617,"3054":3.586195707321167,"3055":3.4505996704101562,"3056":-3.136627197265625,"3057":2.224581003189087,"3058":-9.372381210327148,"3059":-8.927017211914062,"3060":-4.94783353805542,"3061":-5.326399803161621,"3062":3.140235662460327,"3063":3.3544909954071045,"3064":-7.333983898162842,"3065":3.7593417167663574,"3066":0.3790377080440521,"3067":3.541318893432617,"3068":4.092696666717529,"3069":-5.433189868927002,"3070":1.083511471748352,"3071":-0.5079736113548279,"3072":0.18537217378616333,"3073":-7.508858680725098,"3074":-13.022708892822266,"3075":2.309319496154785,"3076":10.762399673461914,"3077":11.45628547668457,"3078":4.201746463775635,"3079":10.32943058013916,"3080":1.646602749824524,"3081":0.3781108856201172,"3082":-1.605940341949463,"3083":5.780333042144775,"3084":6.056774139404297,"3085":10.030844688415527,"3086":5.814783096313477,"3087":-1.3787428140640259,"3088":-3.82454252243042,"3089":-0.10355453193187714,"3090":-1.741391658782959,"3091":-12.126757621765137,"3092":-8.798641204833984,"3093":-1.3472548723220825,"3094":-5.03424072265625,"3095":-2.812105894088745,"3096":0.11541037261486053,"3097":2.4819438457489014,"3098":-3.210500955581665,"3099":8.309473037719727,"3100":-5.433302402496338,"3101":-5.298522472381592,"3102":1.0897058248519897,"3103":4.634768009185791,"3104":3.2838447093963623,"3105":-7.1283183097839355,"3106":2.949336290359497,"3107":0.15815411508083344,"3108":-5.957977294921875,"3109":2.478329658508301,"3110":-12.218031883239746,"3111":0.4017481505870819,"3112":-14.116052627563477,"3113":-7.649773597717285,"3114":-3.5722815990448,"3115":-0.2758859097957611,"3116":3.0125420093536377,"3117":2.8260719776153564,"3118":-4.989687442779541,"3119":7.76853084564209,"3120":12.074502944946289,"3121":0.8518058657646179,"3122":-0.5168014168739319,"3123":0.9808804988861084,"3124":3.5953526496887207,"3125":-5.0565876960754395,"3126":-0.6238796710968018,"3127":-0.7226001024246216,"3128":15.898680686950684,"3129":-9.866912841796875,"3130":-4.6249918937683105,"3131":4.853546142578125,"3132":9.356999397277832,"3133":3.202451467514038,"3134":1.1057268381118774,"3135":12.747720718383789,"3136":6.055246829986572,"3137":-9.758442878723145,"3138":11.818750381469727,"3139":-1.8359631299972534,"3140":-4.845000743865967,"3141":2.476879596710205,"3142":-10.033379554748535,"3143":-3.364884614944458,"3144":0.36746376752853394,"3145":7.6079607009887695,"3146":6.118170261383057,"3147":6.543222427368164,"3148":1.4911192655563354,"3149":-16.63776206970215,"3150":-0.9597983956336975,"3151":-2.871288537979126,"3152":0.9807311296463013,"3153":-4.487951755523682,"3154":-1.6853729486465454,"3155":3.2585606575012207,"3156":7.346277236938477,"3157":-7.576272487640381,"3158":-8.334039688110352,"3159":-2.1064248085021973,"3160":-5.957996845245361,"3161":3.7630956172943115,"3162":10.468583106994629,"3163":0.46823325753211975,"3164":7.263774871826172,"3165":3.3087668418884277,"3166":-1.7488198280334473,"3167":9.775788307189941,"3168":-0.8510144948959351,"3169":-0.38634300231933594,"3170":-6.774054050445557,"3171":-14.011120796203613,"3172":7.192170143127441,"3173":2.8383679389953613,"3174":1.198731541633606,"3175":1.3246830701828003,"3176":2.2322657108306885,"3177":7.812170505523682,"3178":1.708013892173767,"3179":-0.7806453108787537,"3180":-3.6442062854766846,"3181":2.1148245334625244,"3182":-3.942737340927124,"3183":-2.250321865081787,"3184":-4.368192672729492,"3185":1.3079184293746948,"3186":2.099362850189209,"3187":-5.607859134674072,"3188":-4.689309120178223,"3189":0.15415336191654205,"3190":-0.6498124003410339,"3191":2.1694703102111816,"3192":2.04788875579834,"3193":-0.788766086101532,"3194":1.388061285018921,"3195":1.9978593587875366,"3196":0.005179597996175289,"3197":1.276645302772522,"3198":1.6336627006530762,"3199":0.04161904752254486,"3200":5.645965576171875,"3201":1.8455586433410645,"3202":2.841294765472412,"3203":1.0455679893493652,"3204":-0.9870169758796692,"3205":-5.2791972160339355,"3206":-0.9898566603660583,"3207":4.495366096496582,"3208":-0.9435995817184448,"3209":-0.4195554554462433,"3210":-6.66632604598999,"3211":-0.560925304889679,"3212":-0.8108473420143127,"3213":-5.871604919433594,"3214":-5.219069480895996,"3215":-7.668976783752441,"3216":1.8396073579788208,"3217":-2.041801691055298,"3218":-5.299624919891357,"3219":4.307535171508789,"3220":1.798941969871521,"3221":0.9012805819511414,"3222":-0.25802919268608093,"3223":1.1503713130950928,"3224":3.0739152431488037,"3225":0.7622811198234558,"3226":-4.787177562713623,"3227":0.9827203750610352,"3228":0.7226802110671997,"3229":6.216434001922607,"3230":0.6505864858627319,"3231":5.8319807052612305,"3232":-1.8391871452331543,"3233":-3.5251080989837646,"3234":-1.4346923828125,"3235":5.899774551391602,"3236":2.7389049530029297,"3237":5.865497589111328,"3238":-2.0273303985595703,"3239":-2.0191359519958496,"3240":6.239776134490967,"3241":-0.4006440341472626,"3242":-2.6961381435394287,"3243":-7.171087265014648,"3244":4.7449493408203125,"3245":-4.020203590393066,"3246":5.930898666381836,"3247":4.087808609008789,"3248":0.004177907016128302,"3249":2.9444174766540527,"3250":-4.466791152954102,"3251":-4.897379398345947,"3252":-6.810082912445068,"3253":9.443185806274414,"3254":1.4645500183105469,"3255":-0.04692784324288368,"3256":10.40164852142334,"3257":-8.516115188598633,"3258":0.5759010314941406,"3259":9.584038734436035,"3260":13.880512237548828,"3261":15.86559772491455,"3262":-6.0464982986450195,"3263":-15.967249870300293,"3264":-1.952192783355713,"3265":-0.438431978225708,"3266":12.169792175292969,"3267":-7.368215560913086,"3268":-22.614452362060547,"3269":13.362798690795898,"3270":2.7072136402130127,"3271":0.6392329335212708,"3272":-4.521928787231445,"3273":1.321493148803711,"3274":-11.631120681762695,"3275":-0.9387915134429932,"3276":0.03457958623766899,"3277":6.22159481048584,"3278":2.1372358798980713,"3279":-2.4907360076904297,"3280":-6.335159778594971,"3281":-5.228726387023926,"3282":-4.451991081237793,"3283":-7.375641345977783,"3284":-1.9860109090805054,"3285":-0.8840671181678772,"3286":-6.825963020324707,"3287":4.902669906616211,"3288":3.525705575942993,"3289":-2.674651861190796,"3290":8.68377685546875,"3291":0.06495120376348495,"3292":-2.890289068222046,"3293":3.906999111175537,"3294":0.9872156977653503,"3295":-3.0439817905426025,"3296":-8.340112686157227,"3297":4.255936622619629,"3298":13.909051895141602,"3299":15.007808685302734,"3300":6.711727619171143,"3301":-0.1256876289844513,"3302":-0.01654113084077835,"3303":-9.272188186645508,"3304":8.406550407409668,"3305":7.603078842163086,"3306":2.1030046939849854,"3307":0.23584403097629547,"3308":0.2654285132884979,"3309":6.883405685424805,"3310":-3.23360013961792,"3311":5.1820831298828125,"3312":-4.562912940979004,"3313":-15.178739547729492,"3314":-5.2575249671936035,"3315":-10.174097061157227,"3316":-4.727210521697998,"3317":6.779015064239502,"3318":6.808360576629639,"3319":-2.7780656814575195,"3320":-5.175475597381592,"3321":-1.8088903427124023,"3322":-0.38612157106399536,"3323":-0.8482773303985596,"3324":-8.00538444519043,"3325":-2.6369855403900146,"3326":2.3370401859283447,"3327":-5.783499717712402,"3328":5.641042709350586,"3329":-8.80364990234375,"3330":-0.8544524312019348,"3331":0.26214882731437683,"3332":5.268978595733643,"3333":14.784427642822266,"3334":10.62289810180664,"3335":10.797309875488281,"3336":11.161721229553223,"3337":0.5836711525917053,"3338":-7.662597179412842,"3339":-8.842411041259766,"3340":7.478543281555176,"3341":-5.074805736541748,"3342":-17.847707748413086,"3343":0.8387075662612915,"3344":4.634754657745361,"3345":-8.902615547180176,"3346":7.89051628112793,"3347":8.501627922058105,"3348":-10.726430892944336,"3349":-18.12306785583496,"3350":-8.227176666259766,"3351":-0.4588223099708557,"3352":6.590929985046387,"3353":-6.791193962097168,"3354":-16.85132598876953,"3355":-5.815969944000244,"3356":9.029577255249023,"3357":-15.399508476257324,"3358":0.4344921112060547,"3359":11.479168891906738,"3360":-9.88698673248291,"3361":5.21544885635376,"3362":16.818944931030273,"3363":2.3273818492889404,"3364":-3.8762078285217285,"3365":-10.23935604095459,"3366":9.00376033782959,"3367":-5.150538921356201,"3368":-8.315285682678223,"3369":-4.56906795501709,"3370":-11.640497207641602,"3371":-13.216885566711426,"3372":4.854379177093506,"3373":19.3406982421875,"3374":7.332932472229004,"3375":9.712529182434082,"3376":12.078567504882812,"3377":2.311713695526123,"3378":-9.072492599487305,"3379":-9.080987930297852,"3380":4.412187099456787,"3381":-0.05981820821762085,"3382":18.836753845214844,"3383":3.063577175140381,"3384":-7.20427131652832,"3385":-0.37589597702026367,"3386":7.668574810028076,"3387":-5.735325336456299,"3388":-15.238702774047852,"3389":-3.2534677982330322,"3390":7.247345924377441,"3391":0.9653006196022034,"3392":-2.1558313369750977,"3393":5.011350154876709,"3394":-6.664552211761475,"3395":0.6198523044586182,"3396":-2.3920271396636963,"3397":-13.596810340881348,"3398":8.815437316894531,"3399":0.40889066457748413,"3400":11.960522651672363,"3401":-3.0671846866607666,"3402":-9.385710716247559,"3403":0.9832294583320618,"3404":0.33503904938697815,"3405":-5.809060096740723,"3406":6.098338603973389,"3407":1.1738531589508057,"3408":-2.1753792762756348,"3409":9.312154769897461,"3410":7.242459297180176,"3411":-0.2055077999830246,"3412":-0.08642168343067169,"3413":2.2831883430480957,"3414":7.854024887084961,"3415":-7.87192964553833,"3416":-0.1593467891216278,"3417":-6.298209190368652,"3418":-3.504427671432495,"3419":-4.867963790893555,"3420":4.97792911529541,"3421":8.286296844482422,"3422":-6.36318826675415,"3423":0.7086775898933411,"3424":0.9366285800933838,"3425":8.739810943603516,"3426":-3.4840619564056396,"3427":13.366096496582031,"3428":9.810141563415527,"3429":-10.711507797241211,"3430":-9.385995864868164,"3431":-5.066567420959473,"3432":3.681105852127075,"3433":-0.81943279504776,"3434":-4.891746997833252,"3435":-2.81583309173584,"3436":-5.945507049560547,"3437":7.114726543426514,"3438":5.735304832458496,"3439":-9.007275581359863,"3440":0.07768002152442932,"3441":-6.342143535614014,"3442":-5.834621906280518,"3443":1.1778393983840942,"3444":1.5818464756011963,"3445":3.9867324829101562,"3446":1.4222358465194702,"3447":5.328560829162598,"3448":11.536005020141602,"3449":-3.324228525161743,"3450":-0.1544034779071808,"3451":-16.424360275268555,"3452":2.367929697036743,"3453":0.013242070563137531,"3454":1.0076225996017456,"3455":7.081995010375977,"3456":-2.9544003009796143,"3457":-4.391829490661621,"3458":0.25387731194496155,"3459":-5.496273517608643,"3460":-5.909597873687744,"3461":-0.4404071569442749,"3462":-19.142532348632812,"3463":-2.1400249004364014,"3464":-7.190977096557617,"3465":-3.1965765953063965,"3466":-6.502519607543945,"3467":1.416466236114502,"3468":4.609029769897461,"3469":-6.314754009246826,"3470":-2.6968655586242676,"3471":-6.938838958740234,"3472":-1.4765756130218506,"3473":8.546857833862305,"3474":10.90704345703125,"3475":-0.9768607020378113,"3476":5.417773723602295,"3477":-18.617076873779297,"3478":1.3034578561782837,"3479":10.371790885925293,"3480":-5.283603191375732,"3481":5.690883636474609,"3482":13.656437873840332,"3483":7.202815055847168,"3484":12.652995109558105,"3485":10.534735679626465,"3486":-4.775610446929932,"3487":-4.052242279052734,"3488":7.365268230438232,"3489":-5.055469512939453,"3490":4.043790340423584,"3491":11.33717155456543,"3492":-12.08210277557373,"3493":5.496895790100098,"3494":-10.371307373046875,"3495":-8.994789123535156,"3496":-5.9627299308776855,"3497":-14.762588500976562,"3498":14.783689498901367,"3499":-16.83184814453125,"3500":2.1088876724243164,"3501":4.168184280395508,"3502":1.4081392288208008,"3503":-11.960498809814453,"3504":0.3452591300010681,"3505":-0.0790276750922203,"3506":5.267459869384766,"3507":2.3603515625,"3508":7.811775207519531,"3509":6.255839824676514,"3510":4.209104061126709,"3511":0.25885114073753357,"3512":-8.039249420166016,"3513":8.76950740814209,"3514":6.076419830322266,"3515":-3.2195425033569336,"3516":5.472261905670166,"3517":-1.4684576988220215,"3518":-0.7851076722145081,"3519":-11.083670616149902,"3520":0.2489372342824936,"3521":-3.233550786972046,"3522":-4.8919525146484375,"3523":-7.399385452270508,"3524":-13.539710998535156,"3525":3.7255442142486572,"3526":-2.503170967102051,"3527":-1.9565260410308838,"3528":-5.329065799713135,"3529":0.5337961316108704,"3530":-9.888023376464844,"3531":-5.369184494018555,"3532":13.384563446044922,"3533":-7.7965593338012695,"3534":14.882275581359863,"3535":2.399498701095581,"3536":-6.476692199707031,"3537":7.09152364730835,"3538":17.191076278686523,"3539":4.62252950668335,"3540":14.341261863708496,"3541":2.104340076446533,"3542":-3.3766520023345947,"3543":-6.305837154388428,"3544":11.702836990356445,"3545":-15.77352237701416,"3546":5.020805358886719,"3547":-8.544207572937012,"3548":4.63264274597168,"3549":-12.22693157196045,"3550":-12.955612182617188,"3551":8.175069808959961,"3552":2.7804510593414307,"3553":2.073312759399414,"3554":-2.8244123458862305,"3555":1.5305125713348389,"3556":-4.883571624755859,"3557":-5.906022548675537,"3558":-6.8307108879089355,"3559":7.865856170654297,"3560":2.372852325439453,"3561":2.688699722290039,"3562":-5.720856189727783,"3563":-3.759291410446167,"3564":-5.183333873748779,"3565":9.278119087219238,"3566":-1.9015684127807617,"3567":-1.5090687274932861,"3568":-13.264273643493652,"3569":-5.512565612792969,"3570":1.7605500221252441,"3571":2.933272123336792,"3572":1.560333251953125,"3573":-6.4370012283325195,"3574":-0.811794638633728,"3575":-7.078390121459961,"3576":-6.229984760284424,"3577":7.090948581695557,"3578":5.019730091094971,"3579":7.018168926239014,"3580":0.2977927625179291,